<?xml version="1.0"?>
<opencv_storage>
<stage7>
  <maxWeakCount>10</maxWeakCount>
  <stageThreshold>-6.6116797924041748e-01</stageThreshold>
  <weakClassifiers>
    <_>
      <internalNodes>
        0 -1 56583 3.1904350034892559e-03</internalNodes>
      <leafValues>
        -6.7105263471603394e-01 5.0334078073501587e-01</leafValues></_>
    <_>
      <internalNodes>
        0 -1 70007 -1.6748579218983650e-02</internalNodes>
      <leafValues>
        6.7040413618087769e-01 -2.7503976225852966e-01</leafValues></_>
    <_>
      <internalNodes>
        0 -1 64545 5.3753762040287256e-04</internalNodes>
      <leafValues>
        -6.0168558359146118e-01 2.8600826859474182e-01</leafValues></_>
    <_>
      <internalNodes>
        0 -1 41480 7.7597163617610931e-03</internalNodes>
      <leafValues>
        -7.4363887310028076e-01 2.5382077693939209e-01</leafValues></_>
    <_>
      <internalNodes>
        0 -1 2140 -8.0060400068759918e-03</internalNodes>
      <leafValues>
        6.2063527107238770e-01 -2.9861325025558472e-01</leafValues></_>
    <_>
      <internalNodes>
        0 -1 34932 -2.1287996321916580e-02</internalNodes>
      <leafValues>
        7.7382659912109375e-01 -2.4722586572170258e-01</leafValues></_>
    <_>
      <internalNodes>
        0 -1 72155 -6.0587309300899506e-02</internalNodes>
      <leafValues>
        7.5332969427108765e-01 -2.1556702256202698e-01</leafValues></_>
    <_>
      <internalNodes>
        0 -1 67465 -6.7808046005666256e-03</internalNodes>
      <leafValues>
        6.5393811464309692e-01 -2.1209342777729034e-01</leafValues></_>
    <_>
      <internalNodes>
        0 -1 8468 -2.2373566403985023e-02</internalNodes>
      <leafValues>
        5.6203800439834595e-01 -2.9456433653831482e-01</leafValues></_>
    <_>
      <internalNodes>
        0 -1 63986 -1.5332835027948022e-03</internalNodes>
      <leafValues>
        2.3476807773113251e-01 -8.3490490913391113e-01</leafValues></_></weakClassifiers></stage7>
</opencv_storage>
