<?xml version="1.0"?>
<opencv_storage>
<stage3>
  <maxWeakCount>5</maxWeakCount>
  <stageThreshold>-9.5722389221191406e-01</stageThreshold>
  <weakClassifiers>
    <_>
      <internalNodes>
        0 -1 57203 3.5877460613846779e-03</internalNodes>
      <leafValues>
        -7.3626375198364258e-01 5.5760365724563599e-01</leafValues></_>
    <_>
      <internalNodes>
        0 -1 22748 -2.8907218948006630e-02</internalNodes>
      <leafValues>
        -7.5212889909744263e-01 3.2918012142181396e-01</leafValues></_>
    <_>
      <internalNodes>
        0 -1 61516 2.8218347579240799e-03</internalNodes>
      <leafValues>
        2.5426116585731506e-01 -8.8139820098876953e-01</leafValues></_>
    <_>
      <internalNodes>
        0 -1 63796 8.7746903300285339e-03</internalNodes>
      <leafValues>
        -6.2165158987045288e-01 3.7029096484184265e-01</leafValues></_>
    <_>
      <internalNodes>
        0 -1 22721 -1.8289122730493546e-02</internalNodes>
      <leafValues>
        6.5285092592239380e-01 -3.9530822634696960e-01</leafValues></_></weakClassifiers></stage3>
</opencv_storage>
