<?xml version="1.0"?>
<opencv_storage>
<stage8>
  <maxWeakCount>10</maxWeakCount>
  <stageThreshold>-5.1401305198669434e-01</stageThreshold>
  <weakClassifiers>
    <_>
      <internalNodes>
        0 -1 64615 -1.5154520049691200e-02</internalNodes>
      <leafValues>
        -6.7692309617996216e-01 4.7608694434165955e-01</leafValues></_>
    <_>
      <internalNodes>
        0 -1 61150 -1.2144336476922035e-02</internalNodes>
      <leafValues>
        3.2170593738555908e-01 -6.1175924539566040e-01</leafValues></_>
    <_>
      <internalNodes>
        0 -1 37949 7.1687914431095123e-02</internalNodes>
      <leafValues>
        -6.3530975580215454e-01 2.9123544692993164e-01</leafValues></_>
    <_>
      <internalNodes>
        0 -1 39818 -7.0640342310070992e-03</internalNodes>
      <leafValues>
        5.3058415651321411e-01 -3.0593556165695190e-01</leafValues></_>
    <_>
      <internalNodes>
        0 -1 67968 5.7392241433262825e-03</internalNodes>
      <leafValues>
        -2.5108504295349121e-01 6.0900461673736572e-01</leafValues></_>
    <_>
      <internalNodes>
        0 -1 67637 -6.0074543580412865e-03</internalNodes>
      <leafValues>
        5.9502053260803223e-01 -2.2304917871952057e-01</leafValues></_>
    <_>
      <internalNodes>
        0 -1 45148 1.7060781829059124e-03</internalNodes>
      <leafValues>
        -2.3358342051506042e-01 6.6678088903427124e-01</leafValues></_>
    <_>
      <internalNodes>
        0 -1 16722 -6.3538020476698875e-03</internalNodes>
      <leafValues>
        6.3658517599105835e-01 -2.4398395419120789e-01</leafValues></_>
    <_>
      <internalNodes>
        0 -1 32222 1.8868876621127129e-02</internalNodes>
      <leafValues>
        2.0806211233139038e-01 -7.9712259769439697e-01</leafValues></_>
    <_>
      <internalNodes>
        0 -1 35266 -2.0535143557935953e-03</internalNodes>
      <leafValues>
        5.5898433923721313e-01 -2.8102540969848633e-01</leafValues></_></weakClassifiers></stage8>
</opencv_storage>
