<?xml version="1.0"?>
<opencv_storage>
<stage6>
  <maxWeakCount>9</maxWeakCount>
  <stageThreshold>-6.9484502077102661e-01</stageThreshold>
  <weakClassifiers>
    <_>
      <internalNodes>
        0 -1 64734 -4.3754074722528458e-03</internalNodes>
      <leafValues>
        -7.6744186878204346e-01 4.8751357197761536e-01</leafValues></_>
    <_>
      <internalNodes>
        0 -1 14740 -1.4844729565083981e-02</internalNodes>
      <leafValues>
        6.6119319200515747e-01 -2.7963015437126160e-01</leafValues></_>
    <_>
      <internalNodes>
        0 -1 67720 7.2214950341731310e-04</internalNodes>
      <leafValues>
        3.0383363366127014e-01 -6.1385035514831543e-01</leafValues></_>
    <_>
      <internalNodes>
        0 -1 74312 -1.6923157498240471e-02</internalNodes>
      <leafValues>
        4.3267074227333069e-01 -4.2772492766380310e-01</leafValues></_>
    <_>
      <internalNodes>
        0 -1 65700 5.1236418075859547e-03</internalNodes>
      <leafValues>
        -3.1286543607711792e-01 5.4677242040634155e-01</leafValues></_>
    <_>
      <internalNodes>
        0 -1 67630 -1.8064589239656925e-03</internalNodes>
      <leafValues>
        6.6140139102935791e-01 -2.9594883322715759e-01</leafValues></_>
    <_>
      <internalNodes>
        0 -1 67483 1.0466570034623146e-02</internalNodes>
      <leafValues>
        -3.2639208436012268e-01 5.5591905117034912e-01</leafValues></_>
    <_>
      <internalNodes>
        0 -1 57721 -7.0297140628099442e-03</internalNodes>
      <leafValues>
        2.2254879772663116e-01 -8.2875293493270874e-01</leafValues></_>
    <_>
      <internalNodes>
        0 -1 53408 -7.3487736284732819e-02</internalNodes>
      <leafValues>
        -8.2647043466567993e-01 1.6085715591907501e-01</leafValues></_></weakClassifiers></stage6>
</opencv_storage>
