<?xml version="1.0"?>
<opencv_storage>
<cascade>
  <stageType>BOOST</stageType>
  <featureType>HAAR</featureType>
  <height>20</height>
  <width>20</width>
  <stageParams>
    <boostType>GAB</boostType>
    <minHitRate>9.9500000476837158e-01</minHitRate>
    <maxFalseAlarm>5.0000000000000000e-01</maxFalseAlarm>
    <weightTrimRate>9.4999999999999996e-01</weightTrimRate>
    <maxDepth>1</maxDepth>
    <maxWeakCount>100</maxWeakCount></stageParams>
  <featureParams>
    <maxCatCount>0</maxCatCount>
    <featSize>1</featSize>
    <mode>BASIC</mode></featureParams>
  <stageNum>10</stageNum>
  <stages>
    <!-- stage 0 -->
    <_>
      <maxWeakCount>46</maxWeakCount>
      <stageThreshold>-8.0103886127471924e-01</stageThreshold>
      <weakClassifiers>
        <_>
          <internalNodes>
            0 -1 45 2.3584619164466858e-02</internalNodes>
          <leafValues>
            1.6975308954715729e-01 6.6546761989593506e-01</leafValues></_>
        <_>
          <internalNodes>
            0 -1 308 1.6718348488211632e-02</internalNodes>
          <leafValues>
            -1.0972993820905685e-01 3.5894730687141418e-01</leafValues></_>
        <_>
          <internalNodes>
            0 -1 57 -6.2877535820007324e-03</internalNodes>
          <leafValues>
            3.2337015867233276e-01 -1.6758599877357483e-01</leafValues></_>
        <_>
          <internalNodes>
            0 -1 285 -5.0412965938448906e-03</internalNodes>
          <leafValues>
            3.0176419019699097e-01 -1.3284823298454285e-01</leafValues></_>
        <_>
          <internalNodes>
            0 -1 118 1.7489330843091011e-02</internalNodes>
          <leafValues>
            -9.4659417867660522e-02 3.7924918532371521e-01</leafValues></_>
        <_>
          <internalNodes>
            0 -1 267 -2.7546687051653862e-03</internalNodes>
          <leafValues>
            2.8071972727775574e-01 -1.4006830751895905e-01</leafValues></_>
        <_>
          <internalNodes>
            0 -1 579 -3.2866120338439941e-02</internalNodes>
          <leafValues>
            4.4763472676277161e-01 -8.2701236009597778e-02</leafValues></_>
        <_>
          <internalNodes>
            0 -1 585 2.5539588183164597e-02</internalNodes>
          <leafValues>
            -9.1371409595012665e-02 5.6005996465682983e-01</leafValues></_>
        <_>
          <internalNodes>
            0 -1 254 4.3752714991569519e-02</internalNodes>
          <leafValues>
            -1.0113985091447830e-01 3.4344151616096497e-01</leafValues></_>
        <_>
          <internalNodes>
            0 -1 344 -2.6550758630037308e-03</internalNodes>
          <leafValues>
            2.6294285058975220e-01 -1.8134926259517670e-01</leafValues></_>
        <_>
          <internalNodes>
            0 -1 2 -1.6943929949775338e-04</internalNodes>
          <leafValues>
            -2.3859918117523193e-01 1.4453510940074921e-01</leafValues></_>
        <_>
          <internalNodes>
            0 -1 318 9.5652025192975998e-03</internalNodes>
          <leafValues>
            -8.1295788288116455e-02 3.6436864733695984e-01</leafValues></_>
        <_>
          <internalNodes>
            0 -1 502 -5.9538916684687138e-04</internalNodes>
          <leafValues>
            2.6093131303787231e-01 -1.2531310319900513e-01</leafValues></_>
        <_>
          <internalNodes>
            0 -1 507 -4.0810662321746349e-03</internalNodes>
          <leafValues>
            3.0759245157241821e-01 -1.1130282282829285e-01</leafValues></_>
        <_>
          <internalNodes>
            0 -1 622 1.3729222118854523e-03</internalNodes>
          <leafValues>
            8.0149725079536438e-02 -3.8809278607368469e-01</leafValues></_>
        <_>
          <internalNodes>
            0 -1 553 1.0224917903542519e-02</internalNodes>
          <leafValues>
            -8.3430826663970947e-02 3.4214991331100464e-01</leafValues></_>
        <_>
          <internalNodes>
            0 -1 230 3.1405821442604065e-02</internalNodes>
          <leafValues>
            -5.7378295809030533e-02 5.0816881656646729e-01</leafValues></_>
        <_>
          <internalNodes>
            0 -1 444 -7.9955707769840956e-04</internalNodes>
          <leafValues>
            3.3101910352706909e-01 -1.1849876493215561e-01</leafValues></_>
        <_>
          <internalNodes>
            0 -1 440 -6.1634127050638199e-03</internalNodes>
          <leafValues>
            2.8308862447738647e-01 -1.1430827528238297e-01</leafValues></_>
        <_>
          <internalNodes>
            0 -1 369 -1.6001746058464050e-02</internalNodes>
          <leafValues>
            3.4575751423835754e-01 -6.6918715834617615e-02</leafValues></_>
        <_>
          <internalNodes>
            0 -1 74 -4.9895375967025757e-02</internalNodes>
          <leafValues>
            4.6434345841407776e-01 -6.5042413771152496e-02</leafValues></_>
        <_>
          <internalNodes>
            0 -1 58 1.9019874930381775e-01</internalNodes>
          <leafValues>
            6.4041040837764740e-02 -5.1639789342880249e-01</leafValues></_>
        <_>
          <internalNodes>
            0 -1 29 3.3606290817260742e-02</internalNodes>
          <leafValues>
            -9.4845503568649292e-02 3.5180169343948364e-01</leafValues></_>
        <_>
          <internalNodes>
            0 -1 78 5.0700195133686066e-03</internalNodes>
          <leafValues>
            4.4176518917083740e-02 -6.4463806152343750e-01</leafValues></_>
        <_>
          <internalNodes>
            0 -1 160 -5.7518994435667992e-03</internalNodes>
          <leafValues>
            2.4501071870326996e-01 -1.1886447668075562e-01</leafValues></_>
        <_>
          <internalNodes>
            0 -1 635 -1.1176796630024910e-02</internalNodes>
          <leafValues>
            5.1384621858596802e-01 -4.5076724141836166e-02</leafValues></_>
        <_>
          <internalNodes>
            0 -1 642 -1.0023170034401119e-04</internalNodes>
          <leafValues>
            -1.9464877247810364e-01 1.4743396639823914e-01</leafValues></_>
        <_>
          <internalNodes>
            0 -1 615 -6.4793101046234369e-04</internalNodes>
          <leafValues>
            -2.4516804516315460e-01 1.1271947622299194e-01</leafValues></_>
        <_>
          <internalNodes>
            0 -1 222 1.0028451681137085e-02</internalNodes>
          <leafValues>
            -7.9506084322929382e-02 3.4313237667083740e-01</leafValues></_>
        <_>
          <internalNodes>
            0 -1 113 3.8151629269123077e-03</internalNodes>
          <leafValues>
            7.4815288186073303e-02 -3.9869216084480286e-01</leafValues></_>
        <_>
          <internalNodes>
            0 -1 570 -1.9149387298966758e-05</internalNodes>
          <leafValues>
            -1.9423310458660126e-01 1.4346520602703094e-01</leafValues></_>
        <_>
          <internalNodes>
            0 -1 453 8.3012972027063370e-03</internalNodes>
          <leafValues>
            -1.1831649392843246e-01 2.5652939081192017e-01</leafValues></_>
        <_>
          <internalNodes>
            0 -1 68 1.1932570487260818e-02</internalNodes>
          <leafValues>
            -1.0855843871831894e-01 2.7034097909927368e-01</leafValues></_>
        <_>
          <internalNodes>
            0 -1 75 -3.1711701303720474e-03</internalNodes>
          <leafValues>
            -6.0825681686401367e-01 4.4623974710702896e-02</leafValues></_>
        <_>
          <internalNodes>
            0 -1 127 -1.5520978718996048e-02</internalNodes>
          <leafValues>
            2.3504145443439484e-01 -1.1514018476009369e-01</leafValues></_>
        <_>
          <internalNodes>
            0 -1 528 -3.2910846173763275e-02</internalNodes>
          <leafValues>
            3.8834702968597412e-01 -6.3265763223171234e-02</leafValues></_>
        <_>
          <internalNodes>
            0 -1 525 1.5526046045124531e-02</internalNodes>
          <leafValues>
            -1.1281463503837585e-01 2.6275750994682312e-01</leafValues></_>
        <_>
          <internalNodes>
            0 -1 343 -4.1386671364307404e-03</internalNodes>
          <leafValues>
            -5.3778994083404541e-01 5.3654141724109650e-02</leafValues></_>
        <_>
          <internalNodes>
            0 -1 178 -2.7289438992738724e-02</internalNodes>
          <leafValues>
            3.2768476009368896e-01 -9.6557892858982086e-02</leafValues></_>
        <_>
          <internalNodes>
            0 -1 464 2.5213358923792839e-02</internalNodes>
          <leafValues>
            -6.6723331809043884e-02 3.6196506023406982e-01</leafValues></_>
        <_>
          <internalNodes>
            0 -1 174 3.2782806083559990e-03</internalNodes>
          <leafValues>
            -9.9307149648666382e-02 2.5518497824668884e-01</leafValues></_>
        <_>
          <internalNodes>
            0 -1 165 2.3097917437553406e-02</internalNodes>
          <leafValues>
            4.2339019477367401e-02 -6.4691007137298584e-01</leafValues></_>
        <_>
          <internalNodes>
            0 -1 466 -6.8836137652397156e-03</internalNodes>
          <leafValues>
            3.0898097157478333e-01 -8.7724052369594574e-02</leafValues></_>
        <_>
          <internalNodes>
            0 -1 598 -4.0513444691896439e-03</internalNodes>
          <leafValues>
            -5.0903701782226563e-01 5.0635285675525665e-02</leafValues></_>
        <_>
          <internalNodes>
            0 -1 24 -1.3092787936329842e-02</internalNodes>
          <leafValues>
            7.3026490211486816e-01 -3.9616689085960388e-02</leafValues></_>
        <_>
          <internalNodes>
            0 -1 611 -6.0579860582947731e-03</internalNodes>
          <leafValues>
            -6.1015516519546509e-01 5.0593767315149307e-02</leafValues></_></weakClassifiers></_>
    <!-- stage 1 -->
    <_>
      <maxWeakCount>53</maxWeakCount>
      <stageThreshold>-7.3914074897766113e-01</stageThreshold>
      <weakClassifiers>
        <_>
          <internalNodes>
            0 -1 210 -4.4289104640483856e-02</internalNodes>
          <leafValues>
            5.7317072153091431e-01 1.7570498585700989e-01</leafValues></_>
        <_>
          <internalNodes>
            0 -1 306 2.3765675723552704e-02</internalNodes>
          <leafValues>
            -6.6852614283561707e-02 4.1125690937042236e-01</leafValues></_>
        <_>
          <internalNodes>
            0 -1 53 2.6231518015265465e-02</internalNodes>
          <leafValues>
            -8.3128698170185089e-02 4.3335622549057007e-01</leafValues></_>
        <_>
          <internalNodes>
            0 -1 48 -2.5254100561141968e-02</internalNodes>
          <leafValues>
            3.7459209561347961e-01 -1.3107025623321533e-01</leafValues></_>
        <_>
          <internalNodes>
            0 -1 629 -3.1935246661305428e-03</internalNodes>
          <leafValues>
            2.8920170664787292e-01 -1.5886358916759491e-01</leafValues></_>
        <_>
          <internalNodes>
            0 -1 633 4.4569387100636959e-03</internalNodes>
          <leafValues>
            -7.3566980659961700e-02 3.9155057072639465e-01</leafValues></_>
        <_>
          <internalNodes>
            0 -1 470 -3.1919427216053009e-02</internalNodes>
          <leafValues>
            3.0042210221290588e-01 -1.2761230766773224e-01</leafValues></_>
        <_>
          <internalNodes>
            0 -1 157 -3.1287692487239838e-02</internalNodes>
          <leafValues>
            -5.5897223949432373e-01 5.8361422270536423e-02</leafValues></_>
        <_>
          <internalNodes>
            0 -1 445 3.3316038548946381e-02</internalNodes>
          <leafValues>
            3.6501895636320114e-02 -8.1690841913223267e-01</leafValues></_>
        <_>
          <internalNodes>
            0 -1 238 2.2947011515498161e-02</internalNodes>
          <leafValues>
            -1.1113484948873520e-01 2.6182678341865540e-01</leafValues></_>
        <_>
          <internalNodes>
            0 -1 40 -5.6519559584558010e-03</internalNodes>
          <leafValues>
            3.5915344953536987e-01 -6.6750913858413696e-02</leafValues></_>
        <_>
          <internalNodes>
            0 -1 325 -1.1610430665314198e-03</internalNodes>
          <leafValues>
            2.8118017315864563e-01 -9.7593806684017181e-02</leafValues></_>
        <_>
          <internalNodes>
            0 -1 32 -4.9549858085811138e-03</internalNodes>
          <leafValues>
            -6.9127541780471802e-01 3.6309894174337387e-02</leafValues></_>
        <_>
          <internalNodes>
            0 -1 156 -1.1063789948821068e-02</internalNodes>
          <leafValues>
            2.6441198587417603e-01 -1.0167589038610458e-01</leafValues></_>
        <_>
          <internalNodes>
            0 -1 162 5.4767597466707230e-03</internalNodes>
          <leafValues>
            -1.1827030777931213e-01 2.1745918691158295e-01</leafValues></_>
        <_>
          <internalNodes>
            0 -1 355 3.2387138344347477e-03</internalNodes>
          <leafValues>
            -7.3892727494239807e-02 3.4614613652229309e-01</leafValues></_>
        <_>
          <internalNodes>
            0 -1 654 -9.0510188601911068e-04</internalNodes>
          <leafValues>
            -3.2694563269615173e-01 8.4554679691791534e-02</leafValues></_>
        <_>
          <internalNodes>
            0 -1 426 9.3727465718984604e-04</internalNodes>
          <leafValues>
            -1.1846967786550522e-01 2.1601837873458862e-01</leafValues></_>
        <_>
          <internalNodes>
            0 -1 257 -1.7243433743715286e-02</internalNodes>
          <leafValues>
            3.4410247206687927e-01 -7.5390271842479706e-02</leafValues></_>
        <_>
          <internalNodes>
            0 -1 490 -4.6311125159263611e-02</internalNodes>
          <leafValues>
            -8.9644294977188110e-01 3.2460954040288925e-02</leafValues></_>
        <_>
          <internalNodes>
            0 -1 286 -9.3179233372211456e-03</internalNodes>
          <leafValues>
            3.0528709292411804e-01 -8.2438863813877106e-02</leafValues></_>
        <_>
          <internalNodes>
            0 -1 148 8.2193007983732969e-05</internalNodes>
          <leafValues>
            1.4571970701217651e-01 -1.7634285986423492e-01</leafValues></_>
        <_>
          <internalNodes>
            0 -1 54 3.9902739226818085e-02</internalNodes>
          <leafValues>
            3.9335090667009354e-02 -6.9140332937240601e-01</leafValues></_>
        <_>
          <internalNodes>
            0 -1 372 -1.4391022268682718e-03</internalNodes>
          <leafValues>
            2.0344597101211548e-01 -1.1984152346849442e-01</leafValues></_>
        <_>
          <internalNodes>
            0 -1 358 9.1004761634394526e-04</internalNodes>
          <leafValues>
            -1.2085461616516113e-01 1.9293753802776337e-01</leafValues></_>
        <_>
          <internalNodes>
            0 -1 312 -4.9839511513710022e-02</internalNodes>
          <leafValues>
            4.1635239124298096e-01 -6.0232117772102356e-02</leafValues></_>
        <_>
          <internalNodes>
            0 -1 28 4.3733936036005616e-04</internalNodes>
          <leafValues>
            1.4723309874534607e-01 -1.7572197318077087e-01</leafValues></_>
        <_>
          <internalNodes>
            0 -1 33 1.6406061127781868e-02</internalNodes>
          <leafValues>
            -7.5644589960575104e-02 3.5170561075210571e-01</leafValues></_>
        <_>
          <internalNodes>
            0 -1 253 7.2223797906190157e-04</internalNodes>
          <leafValues>
            1.3756467401981354e-01 -2.0866031944751740e-01</leafValues></_>
        <_>
          <internalNodes>
            0 -1 140 -5.9695367235690355e-04</internalNodes>
          <leafValues>
            -2.6613521575927734e-01 9.8542317748069763e-02</leafValues></_>
        <_>
          <internalNodes>
            0 -1 604 -6.2751276418566704e-03</internalNodes>
          <leafValues>
            3.4622409939765930e-01 -7.8966058790683746e-02</leafValues></_>
        <_>
          <internalNodes>
            0 -1 409 4.3750116601586342e-03</internalNodes>
          <leafValues>
            -7.6743267476558685e-02 3.4662294387817383e-01</leafValues></_>
        <_>
          <internalNodes>
            0 -1 461 9.5064099878072739e-03</internalNodes>
          <leafValues>
            -9.0971492230892181e-02 3.2202324271202087e-01</leafValues></_>
        <_>
          <internalNodes>
            0 -1 336 1.3592615723609924e-03</internalNodes>
          <leafValues>
            -9.2241056263446808e-02 2.6809158921241760e-01</leafValues></_>
        <_>
          <internalNodes>
            0 -1 492 -1.3404347002506256e-02</internalNodes>
          <leafValues>
            3.5191658139228821e-01 -7.8441962599754333e-02</leafValues></_>
        <_>
          <internalNodes>
            0 -1 446 -7.2816351894289255e-04</internalNodes>
          <leafValues>
            2.5623667240142822e-01 -9.4253301620483398e-02</leafValues></_>
        <_>
          <internalNodes>
            0 -1 395 9.3903839588165283e-02</internalNodes>
          <leafValues>
            5.1903184503316879e-02 -4.6835756301879883e-01</leafValues></_>
        <_>
          <internalNodes>
            0 -1 478 3.0303660780191422e-02</internalNodes>
          <leafValues>
            -4.5087143778800964e-02 5.4345673322677612e-01</leafValues></_>
        <_>
          <internalNodes>
            0 -1 221 -5.2119497209787369e-02</internalNodes>
          <leafValues>
            5.4671478271484375e-01 -3.6906473338603973e-02</leafValues></_>
        <_>
          <internalNodes>
            0 -1 100 1.6661627590656281e-01</internalNodes>
          <leafValues>
            -3.9567343890666962e-02 5.3946691751480103e-01</leafValues></_>
        <_>
          <internalNodes>
            0 -1 22 -1.9763039017561823e-04</internalNodes>
          <leafValues>
            -2.0010562241077423e-01 1.2383704632520676e-01</leafValues></_>
        <_>
          <internalNodes>
            0 -1 264 -5.1161134615540504e-04</internalNodes>
          <leafValues>
            2.3866842687129974e-01 -1.1998030543327332e-01</leafValues></_>
        <_>
          <internalNodes>
            0 -1 263 1.1180916335433722e-03</internalNodes>
          <leafValues>
            -1.1888985335826874e-01 2.2653515636920929e-01</leafValues></_>
        <_>
          <internalNodes>
            0 -1 30 3.7024706602096558e-02</internalNodes>
          <leafValues>
            3.6156583577394485e-02 -6.7726027965545654e-01</leafValues></_>
        <_>
          <internalNodes>
            0 -1 353 8.6738297250121832e-04</internalNodes>
          <leafValues>
            -1.2441921979188919e-01 2.0695629715919495e-01</leafValues></_>
        <_>
          <internalNodes>
            0 -1 219 -1.6230501933023334e-04</internalNodes>
          <leafValues>
            -1.7036673426628113e-01 1.3651010394096375e-01</leafValues></_>
        <_>
          <internalNodes>
            0 -1 85 4.5893425121903419e-03</internalNodes>
          <leafValues>
            7.1405082941055298e-02 -3.0580425262451172e-01</leafValues></_>
        <_>
          <internalNodes>
            0 -1 552 -9.8490007221698761e-03</internalNodes>
          <leafValues>
            3.0758240818977356e-01 -8.1153683364391327e-02</leafValues></_>
        <_>
          <internalNodes>
            0 -1 487 -8.3614178001880646e-03</internalNodes>
          <leafValues>
            5.4230642318725586e-01 -4.4407714158296585e-02</leafValues></_>
        <_>
          <internalNodes>
            0 -1 338 -2.9217720031738281e-02</internalNodes>
          <leafValues>
            5.3679043054580688e-01 -3.5089083015918732e-02</leafValues></_>
        <_>
          <internalNodes>
            0 -1 544 3.8791812956333160e-02</internalNodes>
          <leafValues>
            -3.4374233335256577e-02 5.9282314777374268e-01</leafValues></_>
        <_>
          <internalNodes>
            0 -1 347 2.9831966385245323e-02</internalNodes>
          <leafValues>
            -4.6401161700487137e-02 4.5865574479103088e-01</leafValues></_>
        <_>
          <internalNodes>
            0 -1 259 1.5211625024676323e-02</internalNodes>
          <leafValues>
            6.2599502503871918e-02 -3.7592229247093201e-01</leafValues></_></weakClassifiers></_>
    <!-- stage 2 -->
    <_>
      <maxWeakCount>60</maxWeakCount>
      <stageThreshold>-7.0247155427932739e-01</stageThreshold>
      <weakClassifiers>
        <_>
          <internalNodes>
            0 -1 149 8.3977356553077698e-02</internalNodes>
          <leafValues>
            1.9942057132720947e-01 6.6899764537811279e-01</leafValues></_>
        <_>
          <internalNodes>
            0 -1 258 -1.2593455612659454e-03</internalNodes>
          <leafValues>
            2.5303372740745544e-01 -1.0799206048250198e-01</leafValues></_>
        <_>
          <internalNodes>
            0 -1 581 -2.4109428748488426e-02</internalNodes>
          <leafValues>
            3.0402070283889771e-01 -9.3465447425842285e-02</leafValues></_>
        <_>
          <internalNodes>
            0 -1 590 5.7005695998668671e-03</internalNodes>
          <leafValues>
            -9.1607816517353058e-02 3.8369229435920715e-01</leafValues></_>
        <_>
          <internalNodes>
            0 -1 198 -6.6370740532875061e-03</internalNodes>
          <leafValues>
            3.1927216053009033e-01 -8.0195903778076172e-02</leafValues></_>
        <_>
          <internalNodes>
            0 -1 125 1.1920968070626259e-02</internalNodes>
          <leafValues>
            -9.3687780201435089e-02 3.0334964394569397e-01</leafValues></_>
        <_>
          <internalNodes>
            0 -1 283 1.3221955858170986e-02</internalNodes>
          <leafValues>
            4.0017608553171158e-02 -7.1052986383438110e-01</leafValues></_>
        <_>
          <internalNodes>
            0 -1 146 -4.1917497583199292e-05</internalNodes>
          <leafValues>
            -1.7954105138778687e-01 1.4543175697326660e-01</leafValues></_>
        <_>
          <internalNodes>
            0 -1 187 3.0944678932428360e-02</internalNodes>
          <leafValues>
            -7.3975548148155212e-02 3.2966530323028564e-01</leafValues></_>
        <_>
          <internalNodes>
            0 -1 1 -8.7472762970719486e-05</internalNodes>
          <leafValues>
            -1.9007228314876556e-01 1.3529989123344421e-01</leafValues></_>
        <_>
          <internalNodes>
            0 -1 1 1.7613487216294743e-05</internalNodes>
          <leafValues>
            1.4668771624565125e-01 -1.7823682725429535e-01</leafValues></_>
        <_>
          <internalNodes>
            0 -1 505 -9.6820748876780272e-04</internalNodes>
          <leafValues>
            2.2209453582763672e-01 -1.0742792487144470e-01</leafValues></_>
        <_>
          <internalNodes>
            0 -1 418 2.4664627388119698e-02</internalNodes>
          <leafValues>
            5.9249870479106903e-02 -4.3868917226791382e-01</leafValues></_>
        <_>
          <internalNodes>
            0 -1 417 -1.4078238606452942e-01</internalNodes>
          <leafValues>
            3.2917544245719910e-01 -6.8651154637336731e-02</leafValues></_>
        <_>
          <internalNodes>
            0 -1 352 -8.6272112093865871e-04</internalNodes>
          <leafValues>
            2.0495112240314484e-01 -1.1291132867336273e-01</leafValues></_>
        <_>
          <internalNodes>
            0 -1 73 -7.4710309505462646e-02</internalNodes>
          <leafValues>
            4.0882372856140137e-01 -5.7745486497879028e-02</leafValues></_>
        <_>
          <internalNodes>
            0 -1 456 4.8494772054255009e-03</internalNodes>
          <leafValues>
            -6.8293437361717224e-02 3.4399861097335815e-01</leafValues></_>
        <_>
          <internalNodes>
            0 -1 276 4.6802306314930320e-04</internalNodes>
          <leafValues>
            -1.2318545579910278e-01 1.9030784070491791e-01</leafValues></_>
        <_>
          <internalNodes>
            0 -1 607 -1.2562302872538567e-02</internalNodes>
          <leafValues>
            -6.8641793727874756e-01 3.3545669168233871e-02</leafValues></_>
        <_>
          <internalNodes>
            0 -1 359 1.7461994290351868e-01</internalNodes>
          <leafValues>
            2.5547472760081291e-02 -7.0228493213653564e-01</leafValues></_>
        <_>
          <internalNodes>
            0 -1 252 3.5039789974689484e-02</internalNodes>
          <leafValues>
            2.7925197035074234e-02 -7.5688236951828003e-01</leafValues></_>
        <_>
          <internalNodes>
            0 -1 200 6.4271432347595692e-04</internalNodes>
          <leafValues>
            -9.6304178237915039e-02 2.3069044947624207e-01</leafValues></_>
        <_>
          <internalNodes>
            0 -1 362 1.6100138425827026e-02</internalNodes>
          <leafValues>
            4.9725536257028580e-02 -4.3705531954765320e-01</leafValues></_>
        <_>
          <internalNodes>
            0 -1 399 -5.4326892131939530e-04</internalNodes>
          <leafValues>
            2.2137264907360077e-01 -1.0418802499771118e-01</leafValues></_>
        <_>
          <internalNodes>
            0 -1 227 1.5688745304942131e-02</internalNodes>
          <leafValues>
            -5.1539197564125061e-02 4.0108904242515564e-01</leafValues></_>
        <_>
          <internalNodes>
            0 -1 484 -1.4666868373751640e-03</internalNodes>
          <leafValues>
            2.2017291188240051e-01 -9.1656595468521118e-02</leafValues></_>
        <_>
          <internalNodes>
            0 -1 55 1.1290227994322777e-02</internalNodes>
          <leafValues>
            -6.7495025694370270e-02 3.0794081091880798e-01</leafValues></_>
        <_>
          <internalNodes>
            0 -1 61 -2.0272508263587952e-03</internalNodes>
          <leafValues>
            2.3611024022102356e-01 -1.2390609085559845e-01</leafValues></_>
        <_>
          <internalNodes>
            0 -1 121 -2.1393448114395142e-02</internalNodes>
          <leafValues>
            -3.9788103103637695e-01 6.3077613711357117e-02</leafValues></_>
        <_>
          <internalNodes>
            0 -1 601 -2.1357670426368713e-02</internalNodes>
          <leafValues>
            -4.1963067650794983e-01 5.2793350070714951e-02</leafValues></_>
        <_>
          <internalNodes>
            0 -1 0 -2.6312971021980047e-04</internalNodes>
          <leafValues>
            -2.4555276334285736e-01 9.3823708593845367e-02</leafValues></_>
        <_>
          <internalNodes>
            0 -1 550 1.4109679032117128e-03</internalNodes>
          <leafValues>
            -1.0706461966037750e-01 2.0656184852123260e-01</leafValues></_>
        <_>
          <internalNodes>
            0 -1 384 8.6345985531806946e-02</internalNodes>
          <leafValues>
            -5.2807133644819260e-02 4.0569186210632324e-01</leafValues></_>
        <_>
          <internalNodes>
            0 -1 425 -3.7216525524854660e-02</internalNodes>
          <leafValues>
            2.3398566246032715e-01 -9.4241283833980560e-02</leafValues></_>
        <_>
          <internalNodes>
            0 -1 499 -1.0391720570623875e-03</internalNodes>
          <leafValues>
            2.1414642035961151e-01 -9.9796697497367859e-02</leafValues></_>
        <_>
          <internalNodes>
            0 -1 356 1.6222026199102402e-02</internalNodes>
          <leafValues>
            -8.1070192158222198e-02 3.2542103528976440e-01</leafValues></_>
        <_>
          <internalNodes>
            0 -1 423 -1.3443867210298777e-03</internalNodes>
          <leafValues>
            2.2630208730697632e-01 -9.4816431403160095e-02</leafValues></_>
        <_>
          <internalNodes>
            0 -1 634 4.1148774325847626e-03</internalNodes>
          <leafValues>
            -6.8162329494953156e-02 3.0850848555564880e-01</leafValues></_>
        <_>
          <internalNodes>
            0 -1 636 -2.9411220457404852e-03</internalNodes>
          <leafValues>
            2.4800564348697662e-01 -8.6696602404117584e-02</leafValues></_>
        <_>
          <internalNodes>
            0 -1 620 1.5516942949034274e-04</internalNodes>
          <leafValues>
            1.0846165567636490e-01 -2.0960819721221924e-01</leafValues></_>
        <_>
          <internalNodes>
            0 -1 301 -1.2186083476990461e-03</internalNodes>
          <leafValues>
            2.4544776976108551e-01 -9.3119211494922638e-02</leafValues></_>
        <_>
          <internalNodes>
            0 -1 181 7.0748757570981979e-04</internalNodes>
          <leafValues>
            1.3237482309341431e-01 -1.6641345620155334e-01</leafValues></_>
        <_>
          <internalNodes>
            0 -1 86 6.3827209174633026e-02</internalNodes>
          <leafValues>
            -5.1485806703567505e-02 5.7556670904159546e-01</leafValues></_>
        <_>
          <internalNodes>
            0 -1 134 -2.8987830504775047e-02</internalNodes>
          <leafValues>
            -6.8034857511520386e-01 3.9341967552900314e-02</leafValues></_>
        <_>
          <internalNodes>
            0 -1 357 -1.3729409314692020e-02</internalNodes>
          <leafValues>
            2.3686391115188599e-01 -9.4682358205318451e-02</leafValues></_>
        <_>
          <internalNodes>
            0 -1 289 3.6653354763984680e-02</internalNodes>
          <leafValues>
            -4.5340802520513535e-02 4.5115789771080017e-01</leafValues></_>
        <_>
          <internalNodes>
            0 -1 69 -1.9511258229613304e-02</internalNodes>
          <leafValues>
            -5.1132315397262573e-01 4.3360136449337006e-02</leafValues></_>
        <_>
          <internalNodes>
            0 -1 170 -1.8169874325394630e-02</internalNodes>
          <leafValues>
            -4.8216053843498230e-01 3.9150781929492950e-02</leafValues></_>
        <_>
          <internalNodes>
            0 -1 12 2.7332764118909836e-02</internalNodes>
          <leafValues>
            5.3027957677841187e-02 -3.8452613353729248e-01</leafValues></_>
        <_>
          <internalNodes>
            0 -1 66 -8.8937226682901382e-03</internalNodes>
          <leafValues>
            6.0229778289794922e-01 -4.0308590978384018e-02</leafValues></_>
        <_>
          <internalNodes>
            0 -1 493 4.2233891785144806e-02</internalNodes>
          <leafValues>
            -4.7749649733304977e-02 4.6326252818107605e-01</leafValues></_>
        <_>
          <internalNodes>
            0 -1 510 -5.9304586611688137e-03</internalNodes>
          <leafValues>
            2.8053820133209229e-01 -7.1853600442409515e-02</leafValues></_>
        <_>
          <internalNodes>
            0 -1 349 2.5863116607069969e-03</internalNodes>
          <leafValues>
            -1.0272704064846039e-01 2.0224708318710327e-01</leafValues></_>
        <_>
          <internalNodes>
            0 -1 443 -1.8770132213830948e-02</internalNodes>
          <leafValues>
            -5.1052659749984741e-01 4.6356882899999619e-02</leafValues></_>
        <_>
          <internalNodes>
            0 -1 365 -8.9825671166181564e-03</internalNodes>
          <leafValues>
            2.5110387802124023e-01 -9.1619834303855896e-02</leafValues></_>
        <_>
          <internalNodes>
            0 -1 555 1.3783038593828678e-03</internalNodes>
          <leafValues>
            -8.6410634219646454e-02 2.5942438840866089e-01</leafValues></_>
        <_>
          <internalNodes>
            0 -1 500 -1.0883121285587549e-03</internalNodes>
          <leafValues>
            2.6634430885314941e-01 -8.2843653857707977e-02</leafValues></_>
        <_>
          <internalNodes>
            0 -1 504 -5.9440592303872108e-04</internalNodes>
          <leafValues>
            2.2678929567337036e-01 -9.8812818527221680e-02</leafValues></_>
        <_>
          <internalNodes>
            0 -1 342 -2.9340948094613850e-04</internalNodes>
          <leafValues>
            -1.6216839849948883e-01 1.2712413072586060e-01</leafValues></_>
        <_>
          <internalNodes>
            0 -1 520 3.9675638079643250e-02</internalNodes>
          <leafValues>
            -3.2527863979339600e-02 6.2174618244171143e-01</leafValues></_></weakClassifiers></_>
    <!-- stage 3 -->
    <_>
      <maxWeakCount>69</maxWeakCount>
      <stageThreshold>-6.6238760948181152e-01</stageThreshold>
      <weakClassifiers>
        <_>
          <internalNodes>
            0 -1 261 4.5442700386047363e-02</internalNodes>
          <leafValues>
            3.0171710252761841e-01 -7.0370370149612427e-01</leafValues></_>
        <_>
          <internalNodes>
            0 -1 632 -6.6436752676963806e-03</internalNodes>
          <leafValues>
            3.9438661932945251e-01 -5.3298473358154297e-02</leafValues></_>
        <_>
          <internalNodes>
            0 -1 46 -7.2722353041172028e-02</internalNodes>
          <leafValues>
            4.2586025595664978e-01 -5.8760564774274826e-02</leafValues></_>
        <_>
          <internalNodes>
            0 -1 50 4.1741551831364632e-03</internalNodes>
          <leafValues>
            -7.4266634881496429e-02 3.5723477602005005e-01</leafValues></_>
        <_>
          <internalNodes>
            0 -1 251 -9.5249619334936142e-05</internalNodes>
          <leafValues>
            -1.9159604609012604e-01 1.1470399796962738e-01</leafValues></_>
        <_>
          <internalNodes>
            0 -1 197 -2.3660777136683464e-02</internalNodes>
          <leafValues>
            -5.9275329113006592e-01 3.8127515465021133e-02</leafValues></_>
        <_>
          <internalNodes>
            0 -1 348 -1.8789614550769329e-03</internalNodes>
          <leafValues>
            2.4589452147483826e-01 -8.9131139218807220e-02</leafValues></_>
        <_>
          <internalNodes>
            0 -1 410 -2.4908810853958130e-02</internalNodes>
          <leafValues>
            -4.3069583177566528e-01 4.3782763183116913e-02</leafValues></_>
        <_>
          <internalNodes>
            0 -1 594 -1.8975890707224607e-03</internalNodes>
          <leafValues>
            -2.5056287646293640e-01 9.8272174596786499e-02</leafValues></_>
        <_>
          <internalNodes>
            0 -1 323 1.1801760410889983e-03</internalNodes>
          <leafValues>
            -8.0347254872322083e-02 2.4615649878978729e-01</leafValues></_>
        <_>
          <internalNodes>
            0 -1 274 -4.2753912508487701e-02</internalNodes>
          <leafValues>
            3.2554954290390015e-01 -8.0154202878475189e-02</leafValues></_>
        <_>
          <internalNodes>
            0 -1 307 7.9171881079673767e-03</internalNodes>
          <leafValues>
            -1.0038580000400543e-01 2.4360232055187225e-01</leafValues></_>
        <_>
          <internalNodes>
            0 -1 368 1.1697779409587383e-03</internalNodes>
          <leafValues>
            -8.0921806395053864e-02 2.6677340269088745e-01</leafValues></_>
        <_>
          <internalNodes>
            0 -1 169 9.4429459422826767e-03</internalNodes>
          <leafValues>
            -8.7665945291519165e-02 2.3543490469455719e-01</leafValues></_>
        <_>
          <internalNodes>
            0 -1 298 -1.3213646598160267e-03</internalNodes>
          <leafValues>
            2.8906017541885376e-01 -6.9345846772193909e-02</leafValues></_>
        <_>
          <internalNodes>
            0 -1 17 2.8632190078496933e-02</internalNodes>
          <leafValues>
            -4.2102854698896408e-02 4.1965675354003906e-01</leafValues></_>
        <_>
          <internalNodes>
            0 -1 433 3.4897968173027039e-02</internalNodes>
          <leafValues>
            -3.1308401376008987e-02 5.7524818181991577e-01</leafValues></_>
        <_>
          <internalNodes>
            0 -1 235 -2.5028269737958908e-02</internalNodes>
          <leafValues>
            -6.4721614122390747e-01 3.3034164458513260e-02</leafValues></_>
        <_>
          <internalNodes>
            0 -1 468 -4.6910353004932404e-02</internalNodes>
          <leafValues>
            4.8286649584770203e-01 -4.3036144226789474e-02</leafValues></_>
        <_>
          <internalNodes>
            0 -1 102 7.5086727738380432e-02</internalNodes>
          <leafValues>
            -4.0333826094865799e-02 4.9565920233726501e-01</leafValues></_>
        <_>
          <internalNodes>
            0 -1 589 1.0636828374117613e-03</internalNodes>
          <leafValues>
            -8.2300044596195221e-02 2.3590058088302612e-01</leafValues></_>
        <_>
          <internalNodes>
            0 -1 642 -9.9727389169856906e-05</internalNodes>
          <leafValues>
            -1.6472336649894714e-01 1.1540251225233078e-01</leafValues></_>
        <_>
          <internalNodes>
            0 -1 67 1.3364577665925026e-02</internalNodes>
          <leafValues>
            -7.6518014073371887e-02 2.3813275992870331e-01</leafValues></_>
        <_>
          <internalNodes>
            0 -1 94 5.5006816983222961e-03</internalNodes>
          <leafValues>
            3.7444893270730972e-02 -5.2484035491943359e-01</leafValues></_>
        <_>
          <internalNodes>
            0 -1 449 -5.9131789021193981e-04</internalNodes>
          <leafValues>
            1.9223371148109436e-01 -9.8443031311035156e-02</leafValues></_>
        <_>
          <internalNodes>
            0 -1 136 -3.2981921685859561e-04</internalNodes>
          <leafValues>
            -1.8540072441101074e-01 1.0493830591440201e-01</leafValues></_>
        <_>
          <internalNodes>
            0 -1 335 1.4517441159114242e-03</internalNodes>
          <leafValues>
            -1.0537990927696228e-01 1.7871563136577606e-01</leafValues></_>
        <_>
          <internalNodes>
            0 -1 509 4.3936595320701599e-03</internalNodes>
          <leafValues>
            -1.1898921430110931e-01 1.6241589188575745e-01</leafValues></_>
        <_>
          <internalNodes>
            0 -1 198 -8.3337156102061272e-03</internalNodes>
          <leafValues>
            3.1058287620544434e-01 -6.0871064662933350e-02</leafValues></_>
        <_>
          <internalNodes>
            0 -1 194 5.2511924877762794e-03</internalNodes>
          <leafValues>
            -1.0055994987487793e-01 2.3034192621707916e-01</leafValues></_>
        <_>
          <internalNodes>
            0 -1 452 4.6316534280776978e-03</internalNodes>
          <leafValues>
            -1.1787182092666626e-01 1.8669845163822174e-01</leafValues></_>
        <_>
          <internalNodes>
            0 -1 613 -1.2044443428749219e-04</internalNodes>
          <leafValues>
            -1.6666777431964874e-01 1.2065971642732620e-01</leafValues></_>
        <_>
          <internalNodes>
            0 -1 434 -5.2099660970270634e-03</internalNodes>
          <leafValues>
            -8.2037127017974854e-01 2.2668655961751938e-02</leafValues></_>
        <_>
          <internalNodes>
            0 -1 327 -1.4428115449845791e-02</internalNodes>
          <leafValues>
            -8.1989926099777222e-01 1.8533397465944290e-02</leafValues></_>
        <_>
          <internalNodes>
            0 -1 420 -4.1992831975221634e-03</internalNodes>
          <leafValues>
            -6.3082563877105713e-01 2.5269977748394012e-02</leafValues></_>
        <_>
          <internalNodes>
            0 -1 223 1.6236074268817902e-02</internalNodes>
          <leafValues>
            -7.1533516049385071e-02 2.7310505509376526e-01</leafValues></_>
        <_>
          <internalNodes>
            0 -1 260 -1.8384257564321160e-03</internalNodes>
          <leafValues>
            2.5445353984832764e-01 -8.8383041322231293e-02</leafValues></_>
        <_>
          <internalNodes>
            0 -1 631 -9.0882601216435432e-04</internalNodes>
          <leafValues>
            2.3342014849185944e-01 -7.3472209274768829e-02</leafValues></_>
        <_>
          <internalNodes>
            0 -1 606 7.9624645877629519e-04</internalNodes>
          <leafValues>
            -1.1920192837715149e-01 1.5594014525413513e-01</leafValues></_>
        <_>
          <internalNodes>
            0 -1 94 -2.6394421001896262e-04</internalNodes>
          <leafValues>
            -1.7723530530929565e-01 1.0901702940464020e-01</leafValues></_>
        <_>
          <internalNodes>
            0 -1 91 2.9079121304675937e-04</internalNodes>
          <leafValues>
            9.8669730126857758e-02 -1.9916720688343048e-01</leafValues></_>
        <_>
          <internalNodes>
            0 -1 414 -7.7162288129329681e-02</internalNodes>
          <leafValues>
            6.0532546043395996e-01 -3.0796382576227188e-02</leafValues></_>
        <_>
          <internalNodes>
            0 -1 467 1.1049794033169746e-02</internalNodes>
          <leafValues>
            -4.9687106162309647e-02 3.8134083151817322e-01</leafValues></_>
        <_>
          <internalNodes>
            0 -1 582 -4.6296091750264168e-03</internalNodes>
          <leafValues>
            -4.3045505881309509e-01 4.2662095278501511e-02</leafValues></_>
        <_>
          <internalNodes>
            0 -1 574 1.2486492283642292e-02</internalNodes>
          <leafValues>
            -8.6799144744873047e-02 2.2879754006862640e-01</leafValues></_>
        <_>
          <internalNodes>
            0 -1 522 -5.4820865392684937e-02</internalNodes>
          <leafValues>
            2.6282325387001038e-01 -1.1438507586717606e-01</leafValues></_>
        <_>
          <internalNodes>
            0 -1 548 -1.0938072577118874e-02</internalNodes>
          <leafValues>
            -3.9321708679199219e-01 5.7455927133560181e-02</leafValues></_>
        <_>
          <internalNodes>
            0 -1 587 5.7629775255918503e-03</internalNodes>
          <leafValues>
            -1.0040448606014252e-01 1.8607090413570404e-01</leafValues></_>
        <_>
          <internalNodes>
            0 -1 363 3.2157213427126408e-03</internalNodes>
          <leafValues>
            -8.6319178342819214e-02 2.2723591327667236e-01</leafValues></_>
        <_>
          <internalNodes>
            0 -1 648 -3.0634338036179543e-03</internalNodes>
          <leafValues>
            -3.9891493320465088e-01 5.2963171154260635e-02</leafValues></_>
        <_>
          <internalNodes>
            0 -1 331 8.2230579573661089e-04</internalNodes>
          <leafValues>
            -8.7228231132030487e-02 2.2559502720832825e-01</leafValues></_>
        <_>
          <internalNodes>
            0 -1 302 -1.0577326174825430e-03</internalNodes>
          <leafValues>
            2.4431155622005463e-01 -8.1916593015193939e-02</leafValues></_>
        <_>
          <internalNodes>
            0 -1 397 5.1190066151320934e-03</internalNodes>
          <leafValues>
            5.3654894232749939e-02 -3.5327911376953125e-01</leafValues></_>
        <_>
          <internalNodes>
            0 -1 99 -1.5571317076683044e-01</internalNodes>
          <leafValues>
            5.7894223928451538e-01 -3.3216200768947601e-02</leafValues></_>
        <_>
          <internalNodes>
            0 -1 108 -1.1924866586923599e-02</internalNodes>
          <leafValues>
            2.0527468621730804e-01 -8.6431816220283508e-02</leafValues></_>
        <_>
          <internalNodes>
            0 -1 96 2.1720439195632935e-02</internalNodes>
          <leafValues>
            -7.4104934930801392e-02 2.7643746137619019e-01</leafValues></_>
        <_>
          <internalNodes>
            0 -1 237 2.5803816970437765e-04</internalNodes>
          <leafValues>
            -1.1126182228326797e-01 1.8438655138015747e-01</leafValues></_>
        <_>
          <internalNodes>
            0 -1 84 -8.7531353347003460e-04</internalNodes>
          <leafValues>
            -2.3108042776584625e-01 7.9548202455043793e-02</leafValues></_>
        <_>
          <internalNodes>
            0 -1 583 4.0109234396368265e-04</internalNodes>
          <leafValues>
            -9.9231012165546417e-02 1.8338315188884735e-01</leafValues></_>
        <_>
          <internalNodes>
            0 -1 482 1.5994263812899590e-03</internalNodes>
          <leafValues>
            -9.1793350875377655e-02 2.0345412194728851e-01</leafValues></_>
        <_>
          <internalNodes>
            0 -1 415 -6.9559827446937561e-02</internalNodes>
          <leafValues>
            2.1787156164646149e-01 -9.3132212758064270e-02</leafValues></_>
        <_>
          <internalNodes>
            0 -1 491 -3.9073820225894451e-03</internalNodes>
          <leafValues>
            -3.7045276165008545e-01 5.3689960390329361e-02</leafValues></_>
        <_>
          <internalNodes>
            0 -1 278 1.8819998949766159e-03</internalNodes>
          <leafValues>
            -7.8961357474327087e-02 2.4382145702838898e-01</leafValues></_>
        <_>
          <internalNodes>
            0 -1 387 1.3988235965371132e-02</internalNodes>
          <leafValues>
            -3.2030384987592697e-02 6.0789304971694946e-01</leafValues></_>
        <_>
          <internalNodes>
            0 -1 381 -1.7625514883548021e-03</internalNodes>
          <leafValues>
            2.3274351656436920e-01 -9.6577808260917664e-02</leafValues></_>
        <_>
          <internalNodes>
            0 -1 294 8.0385338515043259e-03</internalNodes>
          <leafValues>
            6.9264233112335205e-02 -3.0745992064476013e-01</leafValues></_>
        <_>
          <internalNodes>
            0 -1 424 6.6647672792896628e-04</internalNodes>
          <leafValues>
            -1.0244563221931458e-01 1.9039337337017059e-01</leafValues></_>
        <_>
          <internalNodes>
            0 -1 255 4.7405492514371872e-03</internalNodes>
          <leafValues>
            2.4693083018064499e-02 -7.9570317268371582e-01</leafValues></_>
        <_>
          <internalNodes>
            0 -1 88 -7.5807208195328712e-03</internalNodes>
          <leafValues>
            -7.6132297515869141e-01 1.8524864688515663e-02</leafValues></_></weakClassifiers></_>
    <!-- stage 4 -->
    <_>
      <maxWeakCount>68</maxWeakCount>
      <stageThreshold>-6.0862249135971069e-01</stageThreshold>
      <weakClassifiers>
        <_>
          <internalNodes>
            0 -1 316 -1.8193891737610102e-03</internalNodes>
          <leafValues>
            7.5650118291378021e-02 3.8452237844467163e-01</leafValues></_>
        <_>
          <internalNodes>
            0 -1 51 8.9773852378129959e-03</internalNodes>
          <leafValues>
            -4.9190819263458252e-02 3.9763146638870239e-01</leafValues></_>
        <_>
          <internalNodes>
            0 -1 36 -6.3397604972124100e-03</internalNodes>
          <leafValues>
            2.1667453646659851e-01 -1.4204460382461548e-01</leafValues></_>
        <_>
          <internalNodes>
            0 -1 375 -1.7574038356542587e-02</internalNodes>
          <leafValues>
            3.5576257109642029e-01 -6.2024477869272232e-02</leafValues></_>
        <_>
          <internalNodes>
            0 -1 345 -5.3296238183975220e-04</internalNodes>
          <leafValues>
            -1.4922018349170685e-01 1.5164455771446228e-01</leafValues></_>
        <_>
          <internalNodes>
            0 -1 382 2.5356924743391573e-04</internalNodes>
          <leafValues>
            1.1529029905796051e-01 -2.0545801520347595e-01</leafValues></_>
        <_>
          <internalNodes>
            0 -1 328 2.8604529798030853e-02</internalNodes>
          <leafValues>
            3.9522156119346619e-02 -8.3263391256332397e-01</leafValues></_>
        <_>
          <internalNodes>
            0 -1 628 -8.0235246568918228e-03</internalNodes>
          <leafValues>
            3.1504186987876892e-01 -6.7302763462066650e-02</leafValues></_>
        <_>
          <internalNodes>
            0 -1 34 -1.5903141349554062e-02</internalNodes>
          <leafValues>
            2.7898827195167542e-01 -9.0328864753246307e-02</leafValues></_>
        <_>
          <internalNodes>
            0 -1 37 1.7526131123304367e-02</internalNodes>
          <leafValues>
            -6.4161390066146851e-02 4.2656487226486206e-01</leafValues></_>
        <_>
          <internalNodes>
            0 -1 580 2.6891026645898819e-02</internalNodes>
          <leafValues>
            -6.8822786211967468e-02 2.9320424795150757e-01</leafValues></_>
        <_>
          <internalNodes>
            0 -1 649 2.0496947690844536e-02</internalNodes>
          <leafValues>
            3.0928408727049828e-02 -7.6303321123123169e-01</leafValues></_>
        <_>
          <internalNodes>
            0 -1 576 4.7058731317520142e-02</internalNodes>
          <leafValues>
            -4.6292074024677277e-02 4.4193688035011292e-01</leafValues></_>
        <_>
          <internalNodes>
            0 -1 620 2.8372122906148434e-03</internalNodes>
          <leafValues>
            3.4952245652675629e-02 -5.5800622701644897e-01</leafValues></_>
        <_>
          <internalNodes>
            0 -1 350 -2.4831327609717846e-03</internalNodes>
          <leafValues>
            3.0108097195625305e-01 -7.3143094778060913e-02</leafValues></_>
        <_>
          <internalNodes>
            0 -1 422 1.7938083037734032e-02</internalNodes>
          <leafValues>
            -7.6389729976654053e-02 2.4328140914440155e-01</leafValues></_>
        <_>
          <internalNodes>
            0 -1 240 -2.4268394336104393e-03</internalNodes>
          <leafValues>
            2.5864329934120178e-01 -6.7681029438972473e-02</leafValues></_>
        <_>
          <internalNodes>
            0 -1 186 2.5070469826459885e-02</internalNodes>
          <leafValues>
            -6.3335016369819641e-02 2.9590576887130737e-01</leafValues></_>
        <_>
          <internalNodes>
            0 -1 107 -3.5673304228112102e-04</internalNodes>
          <leafValues>
            -1.6358225047588348e-01 1.3909387588500977e-01</leafValues></_>
        <_>
          <internalNodes>
            0 -1 483 2.7936014812439680e-03</internalNodes>
          <leafValues>
            -6.2625214457511902e-02 2.9058316349983215e-01</leafValues></_>
        <_>
          <internalNodes>
            0 -1 475 -1.4048701152205467e-02</internalNodes>
          <leafValues>
            -5.0216126441955566e-01 3.9789177477359772e-02</leafValues></_>
        <_>
          <internalNodes>
            0 -1 496 7.2771767154335976e-03</internalNodes>
          <leafValues>
            -6.7888252437114716e-02 2.8695973753929138e-01</leafValues></_>
        <_>
          <internalNodes>
            0 -1 547 4.0272995829582214e-03</internalNodes>
          <leafValues>
            3.3933788537979126e-02 -5.8348548412322998e-01</leafValues></_>
        <_>
          <internalNodes>
            0 -1 310 -4.5285569503903389e-03</internalNodes>
          <leafValues>
            -3.2114654779434204e-01 5.4352883249521255e-02</leafValues></_>
        <_>
          <internalNodes>
            0 -1 543 -1.0442184284329414e-02</internalNodes>
          <leafValues>
            6.1287742853164673e-01 -3.1835243105888367e-02</leafValues></_>
        <_>
          <internalNodes>
            0 -1 280 8.8155539706349373e-03</internalNodes>
          <leafValues>
            -4.5876983553171158e-02 3.7698984146118164e-01</leafValues></_>
        <_>
          <internalNodes>
            0 -1 246 -3.9110951125621796e-02</internalNodes>
          <leafValues>
            2.1364435553550720e-01 -1.0822390764951706e-01</leafValues></_>
        <_>
          <internalNodes>
            0 -1 229 -1.0281165596097708e-03</internalNodes>
          <leafValues>
            2.0153012871742249e-01 -9.0664513409137726e-02</leafValues></_>
        <_>
          <internalNodes>
            0 -1 104 -3.3447280293330550e-04</internalNodes>
          <leafValues>
            -1.9433285295963287e-01 9.8251141607761383e-02</leafValues></_>
        <_>
          <internalNodes>
            0 -1 486 7.7735038939863443e-04</internalNodes>
          <leafValues>
            -9.6812233328819275e-02 1.9856281578540802e-01</leafValues></_>
        <_>
          <internalNodes>
            0 -1 177 3.2904863357543945e-02</internalNodes>
          <leafValues>
            3.4088537096977234e-02 -5.5032771825790405e-01</leafValues></_>
        <_>
          <internalNodes>
            0 -1 429 7.8387797111645341e-04</internalNodes>
          <leafValues>
            -8.9155517518520355e-02 2.1755340695381165e-01</leafValues></_>
        <_>
          <internalNodes>
            0 -1 428 6.2249199254438281e-04</internalNodes>
          <leafValues>
            -9.7035154700279236e-02 2.1963389217853546e-01</leafValues></_>
        <_>
          <internalNodes>
            0 -1 481 -7.8814011067152023e-04</internalNodes>
          <leafValues>
            2.3635126650333405e-01 -9.8066128790378571e-02</leafValues></_>
        <_>
          <internalNodes>
            0 -1 63 1.8256470561027527e-02</internalNodes>
          <leafValues>
            -7.4816845357418060e-02 2.4344289302825928e-01</leafValues></_>
        <_>
          <internalNodes>
            0 -1 380 -5.4674840066581964e-04</internalNodes>
          <leafValues>
            -2.1155570447444916e-01 9.2609286308288574e-02</leafValues></_>
        <_>
          <internalNodes>
            0 -1 164 1.5007848851382732e-02</internalNodes>
          <leafValues>
            4.1723486036062241e-02 -4.7694677114486694e-01</leafValues></_>
        <_>
          <internalNodes>
            0 -1 265 -8.1443920498713851e-04</internalNodes>
          <leafValues>
            1.8118308484554291e-01 -1.0564878582954407e-01</leafValues></_>
        <_>
          <internalNodes>
            0 -1 299 8.5592176765203476e-04</internalNodes>
          <leafValues>
            -1.0834696888923645e-01 1.7584642767906189e-01</leafValues></_>
        <_>
          <internalNodes>
            0 -1 650 -6.2449667602777481e-03</internalNodes>
          <leafValues>
            -8.1439906358718872e-01 2.2618619725108147e-02</leafValues></_>
        <_>
          <internalNodes>
            0 -1 80 1.0163586586713791e-02</internalNodes>
          <leafValues>
            2.8282472863793373e-02 -6.8571990728378296e-01</leafValues></_>
        <_>
          <internalNodes>
            0 -1 248 -7.8112730989232659e-05</internalNodes>
          <leafValues>
            -1.5187895298004150e-01 1.2451156973838806e-01</leafValues></_>
        <_>
          <internalNodes>
            0 -1 128 2.0596796646714211e-02</internalNodes>
          <leafValues>
            4.4303823262453079e-02 -4.3303585052490234e-01</leafValues></_>
        <_>
          <internalNodes>
            0 -1 403 -2.0732083357870579e-03</internalNodes>
          <leafValues>
            1.9397434592247009e-01 -1.0345506668090820e-01</leafValues></_>
        <_>
          <internalNodes>
            0 -1 602 -3.1424886547029018e-03</internalNodes>
          <leafValues>
            -6.1310189962387085e-01 3.3613417297601700e-02</leafValues></_>
        <_>
          <internalNodes>
            0 -1 541 1.5967182815074921e-02</internalNodes>
          <leafValues>
            -4.0278214961290359e-02 5.9291082620620728e-01</leafValues></_>
        <_>
          <internalNodes>
            0 -1 11 6.3878418877720833e-03</internalNodes>
          <leafValues>
            8.9186444878578186e-02 -2.4396844208240509e-01</leafValues></_>
        <_>
          <internalNodes>
            0 -1 288 -4.3320474214851856e-03</internalNodes>
          <leafValues>
            3.0031055212020874e-01 -6.7246027290821075e-02</leafValues></_>
        <_>
          <internalNodes>
            0 -1 361 -5.1139254355803132e-04</internalNodes>
          <leafValues>
            1.9618915021419525e-01 -1.0522853583097458e-01</leafValues></_>
        <_>
          <internalNodes>
            0 -1 138 -1.4600108377635479e-02</internalNodes>
          <leafValues>
            2.0536197721958160e-01 -9.7737506031990051e-02</leafValues></_>
        <_>
          <internalNodes>
            0 -1 592 2.5707864551804960e-04</internalNodes>
          <leafValues>
            1.2497463822364807e-01 -1.5988723933696747e-01</leafValues></_>
        <_>
          <internalNodes>
            0 -1 82 3.4087002277374268e-02</internalNodes>
          <leafValues>
            -3.6454942077398300e-02 5.2699810266494751e-01</leafValues></_>
        <_>
          <internalNodes>
            0 -1 385 2.9546022415161133e-02</internalNodes>
          <leafValues>
            -4.0026430040597916e-02 4.4070443511009216e-01</leafValues></_>
        <_>
          <internalNodes>
            0 -1 569 3.8223629817366600e-03</internalNodes>
          <leafValues>
            2.8769163414835930e-02 -7.4347227811813354e-01</leafValues></_>
        <_>
          <internalNodes>
            0 -1 575 1.4432887546718121e-02</internalNodes>
          <leafValues>
            -6.2104362994432449e-02 3.2397618889808655e-01</leafValues></_>
        <_>
          <internalNodes>
            0 -1 646 2.0167804323136806e-03</internalNodes>
          <leafValues>
            8.3376467227935791e-02 -2.3891100287437439e-01</leafValues></_>
        <_>
          <internalNodes>
            0 -1 98 3.0821589753031731e-02</internalNodes>
          <leafValues>
            -9.3284823000431061e-02 2.2704842686653137e-01</leafValues></_>
        <_>
          <internalNodes>
            0 -1 489 -1.8569289240986109e-03</internalNodes>
          <leafValues>
            1.9233846664428711e-01 -1.0821701586246490e-01</leafValues></_>
        <_>
          <internalNodes>
            0 -1 514 -5.7508386671543121e-03</internalNodes>
          <leafValues>
            2.1590891480445862e-01 -9.1480121016502380e-02</leafValues></_>
        <_>
          <internalNodes>
            0 -1 639 -4.8015397042036057e-03</internalNodes>
          <leafValues>
            -8.6046540737152100e-01 2.1646505221724510e-02</leafValues></_>
        <_>
          <internalNodes>
            0 -1 462 -2.3095186043065041e-04</internalNodes>
          <leafValues>
            -1.7171199619770050e-01 1.0298063606023788e-01</leafValues></_>
        <_>
          <internalNodes>
            0 -1 39 1.1582447215914726e-02</internalNodes>
          <leafValues>
            5.1855154335498810e-02 -3.4616193175315857e-01</leafValues></_>
        <_>
          <internalNodes>
            0 -1 42 1.5679908916354179e-02</internalNodes>
          <leafValues>
            -4.6268690377473831e-02 4.4102290272712708e-01</leafValues></_>
        <_>
          <internalNodes>
            0 -1 27 3.2094127964228392e-03</internalNodes>
          <leafValues>
            -1.0830463469028473e-01 1.8301729857921600e-01</leafValues></_>
        <_>
          <internalNodes>
            0 -1 203 2.5089971721172333e-02</internalNodes>
          <leafValues>
            3.5825982689857483e-02 -6.0432589054107666e-01</leafValues></_>
        <_>
          <internalNodes>
            0 -1 501 -8.1409572158008814e-04</internalNodes>
          <leafValues>
            2.2501896321773529e-01 -8.5518874228000641e-02</leafValues></_>
        <_>
          <internalNodes>
            0 -1 498 -2.9921632260084152e-02</internalNodes>
          <leafValues>
            -6.4393746852874756e-01 3.0719704926013947e-02</leafValues></_>
        <_>
          <internalNodes>
            0 -1 390 -5.4040970280766487e-03</internalNodes>
          <leafValues>
            -3.5464650392532349e-01 4.8845160752534866e-02</leafValues></_></weakClassifiers></_>
    <!-- stage 5 -->
    <_>
      <maxWeakCount>75</maxWeakCount>
      <stageThreshold>-6.7156291007995605e-01</stageThreshold>
      <weakClassifiers>
        <_>
          <internalNodes>
            0 -1 87 -2.3360605700872838e-04</internalNodes>
          <leafValues>
            8.8863894343376160e-02 3.8547486066818237e-01</leafValues></_>
        <_>
          <internalNodes>
            0 -1 573 -4.5175880193710327e-02</internalNodes>
          <leafValues>
            4.7925958037376404e-01 -3.5577315837144852e-02</leafValues></_>
        <_>
          <internalNodes>
            0 -1 573 -4.5129116624593735e-02</internalNodes>
          <leafValues>
            -1. 4.7670563799329102e-04</leafValues></_>
        <_>
          <internalNodes>
            0 -1 573 -4.5021228492259979e-02</internalNodes>
          <leafValues>
            8.7200003862380981e-01 -4.4200982665643096e-04</leafValues></_>
        <_>
          <internalNodes>
            0 -1 573 -4.4617392122745514e-02</internalNodes>
          <leafValues>
            -9.6910518407821655e-01 1.9965569954365492e-03</leafValues></_>
        <_>
          <internalNodes>
            0 -1 573 -4.4602252542972565e-02</internalNodes>
          <leafValues>
            8.9488720893859863e-01 -4.4298099237494171e-04</leafValues></_>
        <_>
          <internalNodes>
            0 -1 220 -1.6982412338256836e-01</internalNodes>
          <leafValues>
            5.0025552511215210e-01 -6.3238963484764099e-02</leafValues></_>
        <_>
          <internalNodes>
            0 -1 538 5.7885488495230675e-03</internalNodes>
          <leafValues>
            -1.4398147165775299e-01 2.4187147617340088e-01</leafValues></_>
        <_>
          <internalNodes>
            0 -1 31 -3.1933913123793900e-04</internalNodes>
          <leafValues>
            -1.7725875973701477e-01 1.3781225681304932e-01</leafValues></_>
        <_>
          <internalNodes>
            0 -1 49 3.0656833201646805e-02</internalNodes>
          <leafValues>
            -1.2973333895206451e-01 2.5226593017578125e-01</leafValues></_>
        <_>
          <internalNodes>
            0 -1 92 9.2342103016562760e-05</internalNodes>
          <leafValues>
            1.3920257985591888e-01 -1.6465868055820465e-01</leafValues></_>
        <_>
          <internalNodes>
            0 -1 513 1.3273380696773529e-02</internalNodes>
          <leafValues>
            2.4352751672267914e-02 -5.9634053707122803e-01</leafValues></_>
        <_>
          <internalNodes>
            0 -1 9 -5.4985050112009048e-02</internalNodes>
          <leafValues>
            3.0635705590248108e-01 -5.9294853359460831e-02</leafValues></_>
        <_>
          <internalNodes>
            0 -1 495 -1.4533107168972492e-03</internalNodes>
          <leafValues>
            2.6314771175384521e-01 -7.7060475945472717e-02</leafValues></_>
        <_>
          <internalNodes>
            0 -1 469 -1.8021836876869202e-02</internalNodes>
          <leafValues>
            1.7188534140586853e-01 -1.1746295541524887e-01</leafValues></_>
        <_>
          <internalNodes>
            0 -1 588 8.0786235630512238e-03</internalNodes>
          <leafValues>
            -9.1183818876743317e-02 2.2468937933444977e-01</leafValues></_>
        <_>
          <internalNodes>
            0 -1 373 -7.1196548640727997e-02</internalNodes>
          <leafValues>
            3.3642360568046570e-01 -5.3388461470603943e-02</leafValues></_>
        <_>
          <internalNodes>
            0 -1 529 7.9020947217941284e-02</internalNodes>
          <leafValues>
            -4.7125816345214844e-02 4.3466871976852417e-01</leafValues></_>
        <_>
          <internalNodes>
            0 -1 290 3.3260590862482786e-03</internalNodes>
          <leafValues>
            4.0257733315229416e-02 -5.8201563358306885e-01</leafValues></_>
        <_>
          <internalNodes>
            0 -1 189 1.7294984310865402e-02</internalNodes>
          <leafValues>
            -4.1771978139877319e-02 4.7511011362075806e-01</leafValues></_>
        <_>
          <internalNodes>
            0 -1 173 1.2998418882489204e-02</internalNodes>
          <leafValues>
            -5.7228211313486099e-02 3.6311519145965576e-01</leafValues></_>
        <_>
          <internalNodes>
            0 -1 214 -5.0562256947159767e-03</internalNodes>
          <leafValues>
            2.8834086656570435e-01 -7.2866201400756836e-02</leafValues></_>
        <_>
          <internalNodes>
            0 -1 277 -1.3972695916891098e-02</internalNodes>
          <leafValues>
            -4.1194540262222290e-01 4.8225644975900650e-02</leafValues></_>
        <_>
          <internalNodes>
            0 -1 652 1.1176833882927895e-02</internalNodes>
          <leafValues>
            3.7859894335269928e-02 -5.4709625244140625e-01</leafValues></_>
        <_>
          <internalNodes>
            0 -1 212 -2.9095672070980072e-03</internalNodes>
          <leafValues>
            1.4868921041488647e-01 -1.1937616765499115e-01</leafValues></_>
        <_>
          <internalNodes>
            0 -1 273 3.7743464112281799e-02</internalNodes>
          <leafValues>
            -5.4674271494150162e-02 3.7395149469375610e-01</leafValues></_>
        <_>
          <internalNodes>
            0 -1 23 3.7030367820989341e-05</internalNodes>
          <leafValues>
            1.3014328479766846e-01 -1.3772037625312805e-01</leafValues></_>
        <_>
          <internalNodes>
            0 -1 326 8.2212081179022789e-04</internalNodes>
          <leafValues>
            -1.0056778788566589e-01 1.7455556988716125e-01</leafValues></_>
        <_>
          <internalNodes>
            0 -1 494 1.4774487353861332e-03</internalNodes>
          <leafValues>
            -9.8492771387100220e-02 1.8798629939556122e-01</leafValues></_>
        <_>
          <internalNodes>
            0 -1 184 3.1965093221515417e-03</internalNodes>
          <leafValues>
            4.1094038635492325e-02 -4.3824258446693420e-01</leafValues></_>
        <_>
          <internalNodes>
            0 -1 542 6.3689844682812691e-03</internalNodes>
          <leafValues>
            6.3778243958950043e-02 -3.1269907951354980e-01</leafValues></_>
        <_>
          <internalNodes>
            0 -1 208 8.7702469900250435e-03</internalNodes>
          <leafValues>
            -8.7991550564765930e-02 2.1057856082916260e-01</leafValues></_>
        <_>
          <internalNodes>
            0 -1 292 -1.0942832566797733e-02</internalNodes>
          <leafValues>
            4.1227209568023682e-01 -4.4391017407178879e-02</leafValues></_>
        <_>
          <internalNodes>
            0 -1 141 1.8324697157368064e-04</internalNodes>
          <leafValues>
            1.0879752039909363e-01 -1.7331470549106598e-01</leafValues></_>
        <_>
          <internalNodes>
            0 -1 183 -2.2824369370937347e-03</internalNodes>
          <leafValues>
            -3.8571885228157043e-01 4.7607045620679855e-02</leafValues></_>
        <_>
          <internalNodes>
            0 -1 554 -7.8568176832050085e-04</internalNodes>
          <leafValues>
            2.1472838521003723e-01 -8.8951833546161652e-02</leafValues></_>
        <_>
          <internalNodes>
            0 -1 572 -8.3911931142210960e-05</internalNodes>
          <leafValues>
            -1.3771580159664154e-01 1.3617342710494995e-01</leafValues></_>
        <_>
          <internalNodes>
            0 -1 65 1.4113822253420949e-03</internalNodes>
          <leafValues>
            6.9771826267242432e-02 -2.6177811622619629e-01</leafValues></_>
        <_>
          <internalNodes>
            0 -1 145 -1.5917800366878510e-02</internalNodes>
          <leafValues>
            7.9920732975006104e-01 -2.3132020607590675e-02</leafValues></_>
        <_>
          <internalNodes>
            0 -1 70 -7.8594414517283440e-03</internalNodes>
          <leafValues>
            3.5592922568321228e-01 -4.3314155191183090e-02</leafValues></_>
        <_>
          <internalNodes>
            0 -1 388 2.0545557141304016e-02</internalNodes>
          <leafValues>
            4.0426831692457199e-02 -4.8485851287841797e-01</leafValues></_>
        <_>
          <internalNodes>
            0 -1 354 3.1928280368447304e-03</internalNodes>
          <leafValues>
            -1.1289153993129730e-01 1.6663651168346405e-01</leafValues></_>
        <_>
          <internalNodes>
            0 -1 120 -1.7294075223617256e-04</internalNodes>
          <leafValues>
            1.5982219576835632e-01 -1.1515504121780396e-01</leafValues></_>
        <_>
          <internalNodes>
            0 -1 60 3.1502961646765471e-03</internalNodes>
          <leafValues>
            4.1893236339092255e-02 -4.4942751526832581e-01</leafValues></_>
        <_>
          <internalNodes>
            0 -1 38 2.6504421234130859e-01</internalNodes>
          <leafValues>
            2.9452828690409660e-02 -5.6813246011734009e-01</leafValues></_>
        <_>
          <internalNodes>
            0 -1 329 -7.8503083204850554e-04</internalNodes>
          <leafValues>
            1.8823722004890442e-01 -1.0659664869308472e-01</leafValues></_>
        <_>
          <internalNodes>
            0 -1 228 3.0688969418406487e-03</internalNodes>
          <leafValues>
            -8.6641266942024231e-02 2.0498912036418915e-01</leafValues></_>
        <_>
          <internalNodes>
            0 -1 360 -1.8917977809906006e-02</internalNodes>
          <leafValues>
            -6.7794609069824219e-01 2.5779424235224724e-02</leafValues></_>
        <_>
          <internalNodes>
            0 -1 458 -2.0351975763333030e-05</internalNodes>
          <leafValues>
            -1.4922204613685608e-01 1.2138884514570236e-01</leafValues></_>
        <_>
          <internalNodes>
            0 -1 117 -1.5618350356817245e-02</internalNodes>
          <leafValues>
            -4.3549066781997681e-01 4.3726317584514618e-02</leafValues></_>
        <_>
          <internalNodes>
            0 -1 7 5.6637138128280640e-02</internalNodes>
          <leafValues>
            1.0395875573158264e-01 -2.1492134034633636e-01</leafValues></_>
        <_>
          <internalNodes>
            0 -1 62 -2.1182458847761154e-02</internalNodes>
          <leafValues>
            -5.4082924127578735e-01 3.3667787909507751e-02</leafValues></_>
        <_>
          <internalNodes>
            0 -1 315 -2.9318761080503464e-02</internalNodes>
          <leafValues>
            -6.7515122890472412e-01 2.3248400539159775e-02</leafValues></_>
        <_>
          <internalNodes>
            0 -1 421 -4.8190087080001831e-02</internalNodes>
          <leafValues>
            -7.3317569494247437e-01 2.0247198641300201e-02</leafValues></_>
        <_>
          <internalNodes>
            0 -1 619 5.5950647220015526e-04</internalNodes>
          <leafValues>
            1.1214207857847214e-01 -1.6363343596458435e-01</leafValues></_>
        <_>
          <internalNodes>
            0 -1 319 9.4314351677894592e-02</internalNodes>
          <leafValues>
            -2.6834046468138695e-02 6.7657130956649780e-01</leafValues></_>
        <_>
          <internalNodes>
            0 -1 60 -2.6306118816137314e-03</internalNodes>
          <leafValues>
            -3.8558140397071838e-01 5.3416706621646881e-02</leafValues></_>
        <_>
          <internalNodes>
            0 -1 314 -2.8822633903473616e-03</internalNodes>
          <leafValues>
            2.5669693946838379e-01 -7.7718794345855713e-02</leafValues></_>
        <_>
          <internalNodes>
            0 -1 463 2.4378798902034760e-02</internalNodes>
          <leafValues>
            4.4636651873588562e-02 -4.7450330853462219e-01</leafValues></_>
        <_>
          <internalNodes>
            0 -1 474 -1.1169672943651676e-03</internalNodes>
          <leafValues>
            2.3495739698410034e-01 -8.4995858371257782e-02</leafValues></_>
        <_>
          <internalNodes>
            0 -1 503 5.4579116404056549e-02</internalNodes>
          <leafValues>
            -4.4671263545751572e-02 3.8710516691207886e-01</leafValues></_>
        <_>
          <internalNodes>
            0 -1 523 2.4874113500118256e-02</internalNodes>
          <leafValues>
            2.9238378629088402e-02 -7.1114617586135864e-01</leafValues></_>
        <_>
          <internalNodes>
            0 -1 109 9.6230253577232361e-02</internalNodes>
          <leafValues>
            -2.5670990347862244e-02 8.1996321678161621e-01</leafValues></_>
        <_>
          <internalNodes>
            0 -1 76 3.5644040908664465e-03</internalNodes>
          <leafValues>
            3.8687564432621002e-02 -5.3323912620544434e-01</leafValues></_>
        <_>
          <internalNodes>
            0 -1 211 1.9868874922394753e-02</internalNodes>
          <leafValues>
            -2.9551897197961807e-02 7.2800976037979126e-01</leafValues></_>
        <_>
          <internalNodes>
            0 -1 389 -2.6270002126693726e-02</internalNodes>
          <leafValues>
            3.8678348064422607e-01 -4.1953064501285553e-02</leafValues></_>
        <_>
          <internalNodes>
            0 -1 172 9.9893135484308004e-04</internalNodes>
          <leafValues>
            -7.7049843966960907e-02 2.1469382941722870e-01</leafValues></_>
        <_>
          <internalNodes>
            0 -1 437 2.3612850345671177e-03</internalNodes>
          <leafValues>
            -1.1127323657274246e-01 1.5735185146331787e-01</leafValues></_>
        <_>
          <internalNodes>
            0 -1 81 -5.3302594460546970e-03</internalNodes>
          <leafValues>
            -5.7305514812469482e-01 3.1467355787754059e-02</leafValues></_>
        <_>
          <internalNodes>
            0 -1 217 -8.4880011854693294e-05</internalNodes>
          <leafValues>
            -1.6822105646133423e-01 1.1106581240892410e-01</leafValues></_>
        <_>
          <internalNodes>
            0 -1 610 -6.7652817815542221e-03</internalNodes>
          <leafValues>
            -4.4646576046943665e-01 4.3183326721191406e-02</leafValues></_>
        <_>
          <internalNodes>
            0 -1 366 -1.4949736651033163e-03</internalNodes>
          <leafValues>
            2.1824187040328979e-01 -8.6671225726604462e-02</leafValues></_>
        <_>
          <internalNodes>
            0 -1 519 -8.7508713477291167e-05</internalNodes>
          <leafValues>
            -1.4663375914096832e-01 1.3615748286247253e-01</leafValues></_>
        <_>
          <internalNodes>
            0 -1 226 -7.5236991047859192e-02</internalNodes>
          <leafValues>
            -4.4793945550918579e-01 3.7958875298500061e-02</leafValues></_>
        <_>
          <internalNodes>
            0 -1 305 1.9500830676406622e-03</internalNodes>
          <leafValues>
            -7.2603873908519745e-02 2.4951924383640289e-01</leafValues></_></weakClassifiers></_>
    <!-- stage 6 -->
    <_>
      <maxWeakCount>78</maxWeakCount>
      <stageThreshold>-6.1583554744720459e-01</stageThreshold>
      <weakClassifiers>
        <_>
          <internalNodes>
            0 -1 97 8.2537007983773947e-04</internalNodes>
          <leafValues>
            3.8873994350433350e-01 1.1904761940240860e-01</leafValues></_>
        <_>
          <internalNodes>
            0 -1 215 -4.7605987638235092e-02</internalNodes>
          <leafValues>
            4.2317274212837219e-01 -4.6951882541179657e-02</leafValues></_>
        <_>
          <internalNodes>
            0 -1 595 -7.4523902731016278e-04</internalNodes>
          <leafValues>
            -2.1865463256835938e-01 9.7403049468994141e-02</leafValues></_>
        <_>
          <internalNodes>
            0 -1 225 -6.3472613692283630e-02</internalNodes>
          <leafValues>
            2.8286164999008179e-01 -9.3967884778976440e-02</leafValues></_>
        <_>
          <internalNodes>
            0 -1 124 2.9052793979644775e-03</internalNodes>
          <leafValues>
            -4.1169326752424240e-02 3.0335018038749695e-01</leafValues></_>
        <_>
          <internalNodes>
            0 -1 103 8.8908903300762177e-02</internalNodes>
          <leafValues>
            -9.5927007496356964e-02 2.6005613803863525e-01</leafValues></_>
        <_>
          <internalNodes>
            0 -1 407 -1.3436298468150198e-04</internalNodes>
          <leafValues>
            -1.8208965659141541e-01 1.3048297166824341e-01</leafValues></_>
        <_>
          <internalNodes>
            0 -1 540 8.7663152953609824e-05</internalNodes>
          <leafValues>
            1.2367652356624603e-01 -1.4994215965270996e-01</leafValues></_>
        <_>
          <internalNodes>
            0 -1 455 4.0715197101235390e-03</internalNodes>
          <leafValues>
            -3.8549996912479401e-02 3.3417949080467224e-01</leafValues></_>
        <_>
          <internalNodes>
            0 -1 591 -2.9639132320880890e-02</internalNodes>
          <leafValues>
            3.6385941505432129e-01 -6.6408015787601471e-02</leafValues></_>
        <_>
          <internalNodes>
            0 -1 558 -5.2354717627167702e-04</internalNodes>
          <leafValues>
            -1.5954267978668213e-01 1.3524809479713440e-01</leafValues></_>
        <_>
          <internalNodes>
            0 -1 192 1.4577019214630127e-01</internalNodes>
          <leafValues>
            7.7504202723503113e-02 -2.2431080043315887e-01</leafValues></_>
        <_>
          <internalNodes>
            0 -1 651 -2.1681080106645823e-03</internalNodes>
          <leafValues>
            -4.0050601959228516e-01 3.4882716834545135e-02</leafValues></_>
        <_>
          <internalNodes>
            0 -1 334 2.5163306854665279e-03</internalNodes>
          <leafValues>
            -7.3341444134712219e-02 2.0979814231395721e-01</leafValues></_>
        <_>
          <internalNodes>
            0 -1 144 -1.9080875790677965e-04</internalNodes>
          <leafValues>
            -1.5946699678897858e-01 1.0607702285051346e-01</leafValues></_>
        <_>
          <internalNodes>
            0 -1 143 -1.7732096603140235e-04</internalNodes>
          <leafValues>
            -1.7716100811958313e-01 1.0581432282924652e-01</leafValues></_>
        <_>
          <internalNodes>
            0 -1 624 -9.4098895788192749e-03</internalNodes>
          <leafValues>
            1.8493834137916565e-01 -8.9236989617347717e-02</leafValues></_>
        <_>
          <internalNodes>
            0 -1 64 1.0185366496443748e-02</internalNodes>
          <leafValues>
            -6.7868195474147797e-02 2.4327977001667023e-01</leafValues></_>
        <_>
          <internalNodes>
            0 -1 56 -1.9948638975620270e-02</internalNodes>
          <leafValues>
            3.3076775074005127e-01 -5.3883321583271027e-02</leafValues></_>
        <_>
          <internalNodes>
            0 -1 243 3.4693432971835136e-03</internalNodes>
          <leafValues>
            -6.5230898559093475e-02 2.7543437480926514e-01</leafValues></_>
        <_>
          <internalNodes>
            0 -1 351 1.1218438157811761e-03</internalNodes>
          <leafValues>
            -9.4434410333633423e-02 2.0568168163299561e-01</leafValues></_>
        <_>
          <internalNodes>
            0 -1 115 7.3966644704341888e-02</internalNodes>
          <leafValues>
            -3.8816183805465698e-02 4.0607389807701111e-01</leafValues></_>
        <_>
          <internalNodes>
            0 -1 532 5.2235154435038567e-03</internalNodes>
          <leafValues>
            -7.4925288558006287e-02 2.1851301193237305e-01</leafValues></_>
        <_>
          <internalNodes>
            0 -1 196 -2.5271533057093620e-02</internalNodes>
          <leafValues>
            -7.2478014230728149e-01 2.6861494407057762e-02</leafValues></_>
        <_>
          <internalNodes>
            0 -1 431 -7.9312957823276520e-03</internalNodes>
          <leafValues>
            -5.5544078350067139e-01 2.7288313955068588e-02</leafValues></_>
        <_>
          <internalNodes>
            0 -1 119 3.6596957594156265e-02</internalNodes>
          <leafValues>
            -5.5788401514291763e-02 3.1269782781600952e-01</leafValues></_>
        <_>
          <internalNodes>
            0 -1 12 -1.0995559394359589e-02</internalNodes>
          <leafValues>
            -2.0278252661228180e-01 9.4479747116565704e-02</leafValues></_>
        <_>
          <internalNodes>
            0 -1 52 8.0393245443701744e-03</internalNodes>
          <leafValues>
            -8.5308112204074860e-02 2.4122001230716705e-01</leafValues></_>
        <_>
          <internalNodes>
            0 -1 5 -7.8847911208868027e-04</internalNodes>
          <leafValues>
            1.6924904286861420e-01 -1.2849520146846771e-01</leafValues></_>
        <_>
          <internalNodes>
            0 -1 216 -9.2928625235799700e-05</internalNodes>
          <leafValues>
            -1.3584236800670624e-01 1.1991159617900848e-01</leafValues></_>
        <_>
          <internalNodes>
            0 -1 71 -1.9421570003032684e-02</internalNodes>
          <leafValues>
            3.2299482822418213e-01 -4.8303987830877304e-02</leafValues></_>
        <_>
          <internalNodes>
            0 -1 333 7.7906524529680610e-04</internalNodes>
          <leafValues>
            -7.8786492347717285e-02 1.9370378553867340e-01</leafValues></_>
        <_>
          <internalNodes>
            0 -1 340 1.0801738128066063e-02</internalNodes>
          <leafValues>
            2.0055064931511879e-02 -8.6788964271545410e-01</leafValues></_>
        <_>
          <internalNodes>
            0 -1 477 -1.8093079328536987e-02</internalNodes>
          <leafValues>
            -5.7371437549591064e-01 2.3444650694727898e-02</leafValues></_>
        <_>
          <internalNodes>
            0 -1 609 9.7281730268150568e-04</internalNodes>
          <leafValues>
            -7.5590498745441437e-02 2.1723574399948120e-01</leafValues></_>
        <_>
          <internalNodes>
            0 -1 111 -3.6030132323503494e-03</internalNodes>
          <leafValues>
            -5.1079881191253662e-01 3.1323090195655823e-02</leafValues></_>
        <_>
          <internalNodes>
            0 -1 1 -4.2060809209942818e-04</internalNodes>
          <leafValues>
            -1.9107490777969360e-01 8.4554545581340790e-02</leafValues></_>
        <_>
          <internalNodes>
            0 -1 320 7.9877197276800871e-04</internalNodes>
          <leafValues>
            -8.7730921804904938e-02 1.9855466485023499e-01</leafValues></_>
        <_>
          <internalNodes>
            0 -1 643 2.8104503871873021e-04</internalNodes>
          <leafValues>
            1.1995489150285721e-01 -1.5692719817161560e-01</leafValues></_>
        <_>
          <internalNodes>
            0 -1 625 -8.2935573300346732e-04</internalNodes>
          <leafValues>
            -2.2750653326511383e-01 1.0388257354497910e-01</leafValues></_>
        <_>
          <internalNodes>
            0 -1 645 -1.6009472892619669e-04</internalNodes>
          <leafValues>
            -1.7215938866138458e-01 1.1116652935743332e-01</leafValues></_>
        <_>
          <internalNodes>
            0 -1 626 -1.4585948083549738e-03</internalNodes>
          <leafValues>
            1.6798481345176697e-01 -1.0489195585250854e-01</leafValues></_>
        <_>
          <internalNodes>
            0 -1 408 -8.8630616664886475e-04</internalNodes>
          <leafValues>
            2.2510573267936707e-01 -7.8493274748325348e-02</leafValues></_>
        <_>
          <internalNodes>
            0 -1 155 -1.9756302237510681e-01</internalNodes>
          <leafValues>
            -3.5374468564987183e-01 5.0325248390436172e-02</leafValues></_>
        <_>
          <internalNodes>
            0 -1 459 -5.0230855122208595e-03</internalNodes>
          <leafValues>
            3.2702818512916565e-01 -5.1517736166715622e-02</leafValues></_>
        <_>
          <internalNodes>
            0 -1 485 -6.7509524524211884e-04</internalNodes>
          <leafValues>
            2.1181833744049072e-01 -7.7492497861385345e-02</leafValues></_>
        <_>
          <internalNodes>
            0 -1 473 1.9571082666516304e-02</internalNodes>
          <leafValues>
            3.3822726458311081e-02 -5.3116279840469360e-01</leafValues></_>
        <_>
          <internalNodes>
            0 -1 140 -5.9637462254613638e-04</internalNodes>
          <leafValues>
            -2.1733754873275757e-01 7.6118163764476776e-02</leafValues></_>
        <_>
          <internalNodes>
            0 -1 139 -2.9720066115260124e-02</internalNodes>
          <leafValues>
            2.4494981765747070e-01 -8.6716011166572571e-02</leafValues></_>
        <_>
          <internalNodes>
            0 -1 560 -4.2085198219865561e-04</internalNodes>
          <leafValues>
            -1.5777754783630371e-01 1.1504326015710831e-01</leafValues></_>
        <_>
          <internalNodes>
            0 -1 291 1.3245419540908188e-04</internalNodes>
          <leafValues>
            1.2578131258487701e-01 -1.4314106106758118e-01</leafValues></_>
        <_>
          <internalNodes>
            0 -1 413 4.1001636534929276e-02</internalNodes>
          <leafValues>
            -5.6213308125734329e-02 3.1556648015975952e-01</leafValues></_>
        <_>
          <internalNodes>
            0 -1 346 -2.7192443609237671e-02</internalNodes>
          <leafValues>
            4.0267124772071838e-01 -4.1504155844449997e-02</leafValues></_>
        <_>
          <internalNodes>
            0 -1 396 -4.4219191186130047e-03</internalNodes>
          <leafValues>
            -6.8480414152145386e-01 2.9995789751410484e-02</leafValues></_>
        <_>
          <internalNodes>
            0 -1 577 -3.8534838706254959e-02</internalNodes>
          <leafValues>
            -6.0096079111099243e-01 2.5848733261227608e-02</leafValues></_>
        <_>
          <internalNodes>
            0 -1 293 -4.0668193832971156e-04</internalNodes>
          <leafValues>
            1.4463743567466736e-01 -1.1292465776205063e-01</leafValues></_>
        <_>
          <internalNodes>
            0 -1 262 -9.0679514687508345e-04</internalNodes>
          <leafValues>
            2.1892186999320984e-01 -8.5393063724040985e-02</leafValues></_>
        <_>
          <internalNodes>
            0 -1 630 -5.0871479324996471e-03</internalNodes>
          <leafValues>
            -5.5007010698318481e-01 3.4446250647306442e-02</leafValues></_>
        <_>
          <internalNodes>
            0 -1 195 4.7583179548382759e-03</internalNodes>
          <leafValues>
            -7.7981345355510712e-02 2.1427163481712341e-01</leafValues></_>
        <_>
          <internalNodes>
            0 -1 612 -4.9733603373169899e-03</internalNodes>
          <leafValues>
            -7.2607874870300293e-01 2.7977023273706436e-02</leafValues></_>
        <_>
          <internalNodes>
            0 -1 564 2.2219734266400337e-02</internalNodes>
          <leafValues>
            3.8748379796743393e-02 -3.5798719525337219e-01</leafValues></_>
        <_>
          <internalNodes>
            0 -1 571 -3.0507847666740417e-02</internalNodes>
          <leafValues>
            4.3692991137504578e-01 -4.3356530368328094e-02</leafValues></_>
        <_>
          <internalNodes>
            0 -1 551 -4.6783303841948509e-03</internalNodes>
          <leafValues>
            2.1475784480571747e-01 -7.7741459012031555e-02</leafValues></_>
        <_>
          <internalNodes>
            0 -1 370 -4.7733252868056297e-03</internalNodes>
          <leafValues>
            -4.5875203609466553e-01 3.9398718625307083e-02</leafValues></_>
        <_>
          <internalNodes>
            0 -1 59 -2.0674830675125122e-01</internalNodes>
          <leafValues>
            -7.4369508028030396e-01 1.9764844328165054e-02</leafValues></_>
        <_>
          <internalNodes>
            0 -1 89 2.0526386797428131e-03</internalNodes>
          <leafValues>
            6.2442399561405182e-02 -2.5390434265136719e-01</leafValues></_>
        <_>
          <internalNodes>
            0 -1 506 1.8142018467187881e-02</internalNodes>
          <leafValues>
            -3.7271227687597275e-02 4.5452886819839478e-01</leafValues></_>
        <_>
          <internalNodes>
            0 -1 245 -7.5298711657524109e-02</internalNodes>
          <leafValues>
            4.0064591169357300e-01 -3.7900671362876892e-02</leafValues></_>
        <_>
          <internalNodes>
            0 -1 596 -3.1277560628950596e-03</internalNodes>
          <leafValues>
            -4.7457209229469299e-01 3.5956587642431259e-02</leafValues></_>
        <_>
          <internalNodes>
            0 -1 83 -8.8410684838891029e-05</internalNodes>
          <leafValues>
            -1.6550995409488678e-01 1.0052747279405594e-01</leafValues></_>
        <_>
          <internalNodes>
            0 -1 304 -1.3222852721810341e-02</internalNodes>
          <leafValues>
            -6.3509553670883179e-01 2.5899460539221764e-02</leafValues></_>
        <_>
          <internalNodes>
            0 -1 374 -4.6223122626543045e-03</internalNodes>
          <leafValues>
            3.5458719730377197e-01 -4.9465276300907135e-02</leafValues></_>
        <_>
          <internalNodes>
            0 -1 623 -2.4796678917482495e-04</internalNodes>
          <leafValues>
            -1.3067233562469482e-01 1.2345079332590103e-01</leafValues></_>
        <_>
          <internalNodes>
            0 -1 637 3.2732407562434673e-03</internalNodes>
          <leafValues>
            5.3869970142841339e-02 -3.1603252887725830e-01</leafValues></_>
        <_>
          <internalNodes>
            0 -1 269 5.9073739685118198e-03</internalNodes>
          <leafValues>
            -6.0309916734695435e-02 2.6526382565498352e-01</leafValues></_>
        <_>
          <internalNodes>
            0 -1 147 1.0890796780586243e-02</internalNodes>
          <leafValues>
            5.3854387253522873e-02 -3.0699235200881958e-01</leafValues></_>
        <_>
          <internalNodes>
            0 -1 250 -2.5643855333328247e-02</internalNodes>
          <leafValues>
            3.8267958164215088e-01 -4.5908868312835693e-02</leafValues></_>
        <_>
          <internalNodes>
            0 -1 90 -3.8959644734859467e-03</internalNodes>
          <leafValues>
            -1.7571954429149628e-01 1.3579489290714264e-01</leafValues></_></weakClassifiers></_>
    <!-- stage 7 -->
    <_>
      <maxWeakCount>69</maxWeakCount>
      <stageThreshold>-6.2200558185577393e-01</stageThreshold>
      <weakClassifiers>
        <_>
          <internalNodes>
            0 -1 207 2.0354143343865871e-03</internalNodes>
          <leafValues>
            1.8493908643722534e-01 5.2737754583358765e-01</leafValues></_>
        <_>
          <internalNodes>
            0 -1 41 -9.2385867610573769e-03</internalNodes>
          <leafValues>
            3.6732411384582520e-01 -5.8014914393424988e-02</leafValues></_>
        <_>
          <internalNodes>
            0 -1 41 3.6638840101659298e-03</internalNodes>
          <leafValues>
            -1.2522305548191071e-01 2.2729064524173737e-01</leafValues></_>
        <_>
          <internalNodes>
            0 -1 232 1.4738182071596384e-03</internalNodes>
          <leafValues>
            -6.7225567996501923e-02 3.2566368579864502e-01</leafValues></_>
        <_>
          <internalNodes>
            0 -1 324 -3.4871208481490612e-03</internalNodes>
          <leafValues>
            1.9273269176483154e-01 -1.2442921102046967e-01</leafValues></_>
        <_>
          <internalNodes>
            0 -1 206 2.1084004547446966e-03</internalNodes>
          <leafValues>
            -8.6755648255348206e-02 2.3395684361457825e-01</leafValues></_>
        <_>
          <internalNodes>
            0 -1 578 -1.7437022179365158e-02</internalNodes>
          <leafValues>
            2.1714064478874207e-01 -8.9383490383625031e-02</leafValues></_>
        <_>
          <internalNodes>
            0 -1 16 9.6956136985681951e-05</internalNodes>
          <leafValues>
            1.3431528210639954e-01 -1.6651412844657898e-01</leafValues></_>
        <_>
          <internalNodes>
            0 -1 185 -1.1281545273959637e-02</internalNodes>
          <leafValues>
            3.2709848880767822e-01 -5.6572966277599335e-02</leafValues></_>
        <_>
          <internalNodes>
            0 -1 605 -6.6155456006526947e-03</internalNodes>
          <leafValues>
            -6.8463951349258423e-01 3.4411642700433731e-02</leafValues></_>
        <_>
          <internalNodes>
            0 -1 130 -4.9059645971283317e-04</internalNodes>
          <leafValues>
            1.9333246350288391e-01 -9.9987633526325226e-02</leafValues></_>
        <_>
          <internalNodes>
            0 -1 260 -4.2078765109181404e-03</internalNodes>
          <leafValues>
            3.5939463973045349e-01 -5.8577414602041245e-02</leafValues></_>
        <_>
          <internalNodes>
            0 -1 209 -1.0214927606284618e-03</internalNodes>
          <leafValues>
            1.7908258736133575e-01 -1.0562781244516373e-01</leafValues></_>
        <_>
          <internalNodes>
            0 -1 313 1.6580193769186735e-03</internalNodes>
          <leafValues>
            -1.0646542161703110e-01 1.8219698965549469e-01</leafValues></_>
        <_>
          <internalNodes>
            0 -1 566 1.8859218806028366e-02</internalNodes>
          <leafValues>
            -7.4110344052314758e-02 2.6035928726196289e-01</leafValues></_>
        <_>
          <internalNodes>
            0 -1 600 -4.8510739579796791e-03</internalNodes>
          <leafValues>
            2.3062685132026672e-01 -7.2936885058879852e-02</leafValues></_>
        <_>
          <internalNodes>
            0 -1 35 -7.9754814505577087e-03</internalNodes>
          <leafValues>
            -8.5589653253555298e-01 2.0884944126009941e-02</leafValues></_>
        <_>
          <internalNodes>
            0 -1 516 -1.0961160063743591e-02</internalNodes>
          <leafValues>
            7.2816109657287598e-01 -2.8336688876152039e-02</leafValues></_>
        <_>
          <internalNodes>
            0 -1 282 -7.6579912565648556e-03</internalNodes>
          <leafValues>
            -7.7580904960632324e-01 2.8892353177070618e-02</leafValues></_>
        <_>
          <internalNodes>
            0 -1 614 1.9965576939284801e-04</internalNodes>
          <leafValues>
            1.0216959565877914e-01 -1.7830915749073029e-01</leafValues></_>
        <_>
          <internalNodes>
            0 -1 101 2.9830854386091232e-02</internalNodes>
          <leafValues>
            -8.2530245184898376e-02 2.2964330017566681e-01</leafValues></_>
        <_>
          <internalNodes>
            0 -1 563 4.7365545469801873e-05</internalNodes>
          <leafValues>
            1.3683806359767914e-01 -1.5127591788768768e-01</leafValues></_>
        <_>
          <internalNodes>
            0 -1 284 -2.4747289717197418e-03</internalNodes>
          <leafValues>
            1.9970089197158813e-01 -1.0335475206375122e-01</leafValues></_>
        <_>
          <internalNodes>
            0 -1 432 -4.5771026052534580e-03</internalNodes>
          <leafValues>
            -6.9435489177703857e-01 2.7215000241994858e-02</leafValues></_>
        <_>
          <internalNodes>
            0 -1 512 2.3452341556549072e-03</internalNodes>
          <leafValues>
            -6.4309656620025635e-02 3.0097338557243347e-01</leafValues></_>
        <_>
          <internalNodes>
            0 -1 568 -7.4204697739332914e-05</internalNodes>
          <leafValues>
            -1.5418067574501038e-01 1.2129948288202286e-01</leafValues></_>
        <_>
          <internalNodes>
            0 -1 137 -4.7572124749422073e-03</internalNodes>
          <leafValues>
            -8.0472075939178467e-01 2.4372698739171028e-02</leafValues></_>
        <_>
          <internalNodes>
            0 -1 476 1.0935857426375151e-03</internalNodes>
          <leafValues>
            -7.7465444803237915e-02 2.4761956930160522e-01</leafValues></_>
        <_>
          <internalNodes>
            0 -1 14 1.5210369601845741e-02</internalNodes>
          <leafValues>
            -6.1032116413116455e-02 2.7650377154350281e-01</leafValues></_>
        <_>
          <internalNodes>
            0 -1 618 2.1249355995678343e-05</internalNodes>
          <leafValues>
            1.3251960277557373e-01 -1.4751417934894562e-01</leafValues></_>
        <_>
          <internalNodes>
            0 -1 8 4.1548058390617371e-02</internalNodes>
          <leafValues>
            2.8918581083416939e-02 -6.1711287498474121e-01</leafValues></_>
        <_>
          <internalNodes>
            0 -1 346 3.9316244423389435e-02</internalNodes>
          <leafValues>
            -2.8612948954105377e-02 6.6502642631530762e-01</leafValues></_>
        <_>
          <internalNodes>
            0 -1 471 8.2181429024785757e-04</internalNodes>
          <leafValues>
            -7.8887715935707092e-02 2.2965379059314728e-01</leafValues></_>
        <_>
          <internalNodes>
            0 -1 364 -8.0767250619828701e-04</internalNodes>
          <leafValues>
            1.8094491958618164e-01 -1.0302628576755524e-01</leafValues></_>
        <_>
          <internalNodes>
            0 -1 616 -5.4422364337369800e-04</internalNodes>
          <leafValues>
            -2.2066834568977356e-01 9.0676993131637573e-02</leafValues></_>
        <_>
          <internalNodes>
            0 -1 400 -4.4256247929297388e-04</internalNodes>
          <leafValues>
            1.7291738092899323e-01 -1.0793101787567139e-01</leafValues></_>
        <_>
          <internalNodes>
            0 -1 62 5.9102647937834263e-03</internalNodes>
          <leafValues>
            8.2837037742137909e-02 -2.2910447418689728e-01</leafValues></_>
        <_>
          <internalNodes>
            0 -1 168 -2.3194456007331610e-03</internalNodes>
          <leafValues>
            2.0692956447601318e-01 -9.5147810876369476e-02</leafValues></_>
        <_>
          <internalNodes>
            0 -1 376 4.8421965911984444e-03</internalNodes>
          <leafValues>
            -7.0820942521095276e-02 2.5718861818313599e-01</leafValues></_>
        <_>
          <internalNodes>
            0 -1 546 1.9513930892571807e-03</internalNodes>
          <leafValues>
            -8.0179691314697266e-02 2.3808290064334869e-01</leafValues></_>
        <_>
          <internalNodes>
            0 -1 213 -1.1570042697712779e-03</internalNodes>
          <leafValues>
            2.0349566638469696e-01 -8.6624652147293091e-02</leafValues></_>
        <_>
          <internalNodes>
            0 -1 135 -1.3324544765055180e-02</internalNodes>
          <leafValues>
            1.9206970930099487e-01 -1.0025022923946381e-01</leafValues></_>
        <_>
          <internalNodes>
            0 -1 268 4.5335497707128525e-03</internalNodes>
          <leafValues>
            -1.0958524048328400e-01 2.0522475242614746e-01</leafValues></_>
        <_>
          <internalNodes>
            0 -1 442 -3.5020388662815094e-02</internalNodes>
          <leafValues>
            6.5361636877059937e-01 -2.6338107883930206e-02</leafValues></_>
        <_>
          <internalNodes>
            0 -1 524 -6.3259969465434551e-04</internalNodes>
          <leafValues>
            2.1968552470207214e-01 -8.1751905381679535e-02</leafValues></_>
        <_>
          <internalNodes>
            0 -1 114 4.2961478233337402e-02</internalNodes>
          <leafValues>
            -3.2532695680856705e-02 5.9241390228271484e-01</leafValues></_>
        <_>
          <internalNodes>
            0 -1 199 -1.0072799399495125e-02</internalNodes>
          <leafValues>
            1.8610088527202606e-01 -9.2158220708370209e-02</leafValues></_>
        <_>
          <internalNodes>
            0 -1 549 1.0119711980223656e-02</internalNodes>
          <leafValues>
