<?xml version="1.0"?>
<opencv_storage>
<stage4>
  <maxWeakCount>13</maxWeakCount>
  <stageThreshold>-7.3731791973114014e-01</stageThreshold>
  <weakClassifiers>
    <_>
      <internalNodes>
        0 -1 42361 3.4185487776994705e-02</internalNodes>
      <leafValues>
        4.0945455431938171e-01 -8.7999999523162842e-01</leafValues></_>
    <_>
      <internalNodes>
        0 -1 73048 1.3340712757781148e-03</internalNodes>
      <leafValues>
        -2.8664374351501465e-01 4.0009179711341858e-01</leafValues></_>
    <_>
      <internalNodes>
        0 -1 47040 -1.0620754212141037e-02</internalNodes>
      <leafValues>
        -6.8526786565780640e-01 1.5273445844650269e-01</leafValues></_>
    <_>
      <internalNodes>
        0 -1 48063 6.3487723469734192e-02</internalNodes>
      <leafValues>
        -2.3293438553810120e-01 4.9334323406219482e-01</leafValues></_>
    <_>
      <internalNodes>
        0 -1 63231 -4.2952787131071091e-02</internalNodes>
      <leafValues>
        5.1138496398925781e-01 -2.9054129123687744e-01</leafValues></_>
    <_>
      <internalNodes>
        0 -1 61545 6.1860783025622368e-03</internalNodes>
      <leafValues>
        1.9568641483783722e-01 -6.3851994276046753e-01</leafValues></_>
    <_>
      <internalNodes>
        0 -1 72944 2.6148604229092598e-03</internalNodes>
      <leafValues>
        -2.1746118366718292e-01 4.8083883523941040e-01</leafValues></_>
    <_>
      <internalNodes>
        0 -1 61179 -3.0730241909623146e-02</internalNodes>
      <leafValues>
        -7.7752888202667236e-01 1.2646161019802094e-01</leafValues></_>
    <_>
      <internalNodes>
        0 -1 33822 -1.3515730388462543e-03</internalNodes>
      <leafValues>
        3.9319556951522827e-01 -2.6137486100196838e-01</leafValues></_>
    <_>
      <internalNodes>
        0 -1 36455 4.9799680709838867e-02</internalNodes>
      <leafValues>
        1.1994542926549911e-01 -7.9391252994537354e-01</leafValues></_>
    <_>
      <internalNodes>
        0 -1 29388 -3.9562461897730827e-03</internalNodes>
      <leafValues>
        3.7732392549514771e-01 -2.7452644705772400e-01</leafValues></_>
    <_>
      <internalNodes>
        0 -1 54825 1.4163687825202942e-02</internalNodes>
      <leafValues>
        -1.5261907875537872e-01 6.2803727388381958e-01</leafValues></_>
    <_>
      <internalNodes>
        0 -1 35946 2.4267835542559624e-03</internalNodes>
      <leafValues>
        1.5413655340671539e-01 -5.9641581773757935e-01</leafValues></_></weakClassifiers></stage4>
</opencv_storage>
