<?xml version="1.0"?>
<opencv_storage>
<stage2>
  <maxWeakCount>11</maxWeakCount>
  <stageThreshold>-7.2265923023223877e-01</stageThreshold>
  <weakClassifiers>
    <_>
      <internalNodes>
        0 -1 56746 -9.9355150014162064e-03</internalNodes>
      <leafValues>
        -7.5945019721984863e-01 4.4039112329483032e-01</leafValues></_>
    <_>
      <internalNodes>
        0 -1 72935 1.0917966719716787e-03</internalNodes>
      <leafValues>
        -3.0302086472511292e-01 4.7845959663391113e-01</leafValues></_>
    <_>
      <internalNodes>
        0 -1 70076 -2.9505359008908272e-02</internalNodes>
      <leafValues>
        6.1847865581512451e-01 -2.2938624024391174e-01</leafValues></_>
    <_>
      <internalNodes>
        0 -1 25823 1.5050401911139488e-02</internalNodes>
      <leafValues>
        -2.9732871055603027e-01 5.0065672397613525e-01</leafValues></_>
    <_>
      <internalNodes>
        0 -1 16095 -5.9871659614145756e-03</internalNodes>
      <leafValues>
        6.9850254058837891e-01 -1.8860927224159241e-01</leafValues></_>
    <_>
      <internalNodes>
        0 -1 58546 8.7374607101082802e-03</internalNodes>
      <leafValues>
        -2.6431787014007568e-01 5.1278293132781982e-01</leafValues></_>
    <_>
      <internalNodes>
        0 -1 67571 -9.8007568158209324e-04</internalNodes>
      <leafValues>
        3.1639167666435242e-01 -3.9142873883247375e-01</leafValues></_>
    <_>
      <internalNodes>
        0 -1 48890 -5.3923698142170906e-03</internalNodes>
      <leafValues>
        -8.9921659231185913e-01 1.3583238422870636e-01</leafValues></_>
    <_>
      <internalNodes>
        0 -1 59660 -1.4781639911234379e-03</internalNodes>
      <leafValues>
        4.3632659316062927e-01 -3.0803456902503967e-01</leafValues></_>
    <_>
      <internalNodes>
        0 -1 39746 -4.6346681192517281e-03</internalNodes>
      <leafValues>
        5.9049224853515625e-01 -2.1186773478984833e-01</leafValues></_>
    <_>
      <internalNodes>
        0 -1 61179 -3.6209262907505035e-02</internalNodes>
      <leafValues>
        -8.9720463752746582e-01 1.5075011551380157e-01</leafValues></_></weakClassifiers></stage2>
</opencv_storage>
