<?xml version="1.0"?>
<opencv_storage>
<stage3>
  <maxWeakCount>11</maxWeakCount>
  <stageThreshold>-7.0906281471252441e-01</stageThreshold>
  <weakClassifiers>
    <_>
      <internalNodes>
        0 -1 72156 3.5668224096298218e-02</internalNodes>
      <leafValues>
        4.4465431571006775e-01 -7.4917489290237427e-01</leafValues></_>
    <_>
      <internalNodes>
        0 -1 67549 2.4280767887830734e-02</internalNodes>
      <leafValues>
        -1.3188840448856354e-01 6.6166728734970093e-01</leafValues></_>
    <_>
      <internalNodes>
        0 -1 31383 1.4753276109695435e-01</internalNodes>
      <leafValues>
        -3.0034607648849487e-01 5.6122905015945435e-01</leafValues></_>
    <_>
      <internalNodes>
        0 -1 59652 -9.9437381140887737e-04</internalNodes>
      <leafValues>
        5.2646911144256592e-01 -2.3176261782646179e-01</leafValues></_>
    <_>
      <internalNodes>
        0 -1 67720 -2.4989910889416933e-03</internalNodes>
      <leafValues>
        2.9845428466796875e-01 -4.1593906283378601e-01</leafValues></_>
    <_>
      <internalNodes>
        0 -1 48646 -4.9198921769857407e-03</internalNodes>
      <leafValues>
        -8.9279049634933472e-01 9.3067869544029236e-02</leafValues></_>
    <_>
      <internalNodes>
        0 -1 74914 3.9792689494788647e-03</internalNodes>
      <leafValues>
        -2.1174293756484985e-01 5.6125605106353760e-01</leafValues></_>
    <_>
      <internalNodes>
        0 -1 37216 6.3318246975541115e-03</internalNodes>
      <leafValues>
        1.6626295447349548e-01 -7.0776486396789551e-01</leafValues></_>
    <_>
      <internalNodes>
        0 -1 42371 -4.2983446270227432e-02</internalNodes>
      <leafValues>
        -7.9918408393859863e-01 1.3869298994541168e-01</leafValues></_>
    <_>
      <internalNodes>
        0 -1 18378 1.1816913262009621e-02</internalNodes>
      <leafValues>
        -2.8737726807594299e-01 4.6335661411285400e-01</leafValues></_>
    <_>
      <internalNodes>
        0 -1 29461 1.3938181102275848e-02</internalNodes>
      <leafValues>
        -3.0248695611953735e-01 3.5956948995590210e-01</leafValues></_></weakClassifiers></stage3>
</opencv_storage>
