<?xml version="1.0"?>
<opencv_storage>
<stage1>
  <maxWeakCount>10</maxWeakCount>
  <stageThreshold>-8.7838435173034668e-01</stageThreshold>
  <weakClassifiers>
    <_>
      <internalNodes>
        0 -1 43621 5.8480931329540908e-05</internalNodes>
      <leafValues>
        -5.5070203542709351e-01 5.6431353092193604e-01</leafValues></_>
    <_>
      <internalNodes>
        0 -1 51573 -4.9688942730426788e-02</internalNodes>
      <leafValues>
        -8.2254201173782349e-01 2.2106547653675079e-01</leafValues></_>
    <_>
      <internalNodes>
        0 -1 74193 -1.6801942139863968e-02</internalNodes>
      <leafValues>
        4.7271600365638733e-01 -3.3493432402610779e-01</leafValues></_>
    <_>
      <internalNodes>
        0 -1 26183 -9.4988560304045677e-03</internalNodes>
      <leafValues>
        5.0937604904174805e-01 -3.3648860454559326e-01</leafValues></_>
    <_>
      <internalNodes>
        0 -1 43966 2.2473214194178581e-03</internalNodes>
      <leafValues>
        -7.6601058244705200e-01 1.9833144545555115e-01</leafValues></_>
    <_>
      <internalNodes>
        0 -1 53413 1.5377740375697613e-02</internalNodes>
      <leafValues>
        1.9853301346302032e-01 -7.3222810029983521e-01</leafValues></_>
    <_>
      <internalNodes>
        0 -1 39824 -8.6938124150037766e-03</internalNodes>
      <leafValues>
        5.9381949901580811e-01 -2.5514930486679077e-01</leafValues></_>
    <_>
      <internalNodes>
        0 -1 72940 3.6666602827608585e-03</internalNodes>
      <leafValues>
        -2.7226659655570984e-01 4.7121113538742065e-01</leafValues></_>
    <_>
      <internalNodes>
        0 -1 43048 7.3967158794403076e-02</internalNodes>
      <leafValues>
        -2.1954675018787384e-01 6.1691075563430786e-01</leafValues></_>
    <_>
      <internalNodes>
        0 -1 46180 -5.4135266691446304e-03</internalNodes>
      <leafValues>
        4.7277334332466125e-01 -3.7012499570846558e-01</leafValues></_></weakClassifiers></stage1>
</opencv_storage>
